<?xml version="1.0"?>
<opencv_storage>
<opencv_ml_svm>
  <format>3</format>
  <svmType>C_SVC</svmType>
  <kernel>
    <type>LINEAR</type></kernel>
  <C>1.0000000000000001e-01</C>
  <term_criteria><iterations>100</iterations></term_criteria>
  <var_count>7</var_count>
  <class_count>2</class_count>
  <class_labels type_id="opencv-matrix">
    <rows>2</rows>
    <cols>1</cols>
    <dt>i</dt>
    <data>
      0 1</data></class_labels>
  <sv_total>1</sv_total>
  <support_vectors>
    <_>
      2.67174677e-04 8.05181389e-06 4.86456265e-04 -1.92344305e-04 0.
      2.93714320e-03 8.29948112e-03</_></support_vectors>
  <uncompressed_sv_total>7</uncompressed_sv_total>
  <uncompressed_support_vectors>
    <_>
      1.85326004e+00 9.39393997e-01 -5.49517012e+00 1.89773999e+03 0.
      1.19121003e+00 1.05182996e+03</_>
    <_>
      2.69402992e-02 1. -8.31527996e+00 3.50171995e+00 0. 6.67572021e-06
      3.19264007e+00</_>
    <_>
      1.50167001e-02 1. -1.07160997e+01 1.49603004e+01 0. 0. 0.</_>
    <_>
      3.92474008e+00 9.58837986e-01 -1.14583004e+00 3.75071997e+03 0.
      1.91406002e+01 6.04943008e+01</_>
    <_>
      3.69471016e+01 7.10684001e-01 -4.91663980e+00 3.08269004e+04 0.
      3.75485992e+00 4.70269989e+02</_>
    <_>
      3.67310982e+01 7.03153014e-01 -4.16986990e+00 3.10315996e+04 0.
      2.26132989e+00 5.16851990e+02</_>
    <_>
      2.15031004e+00 9.09852982e-01 -4.19808006e+00 3.65694995e+03 0.
      8.63677979e-01 3.12558007e+00</_></uncompressed_support_vectors>
  <decision_functions>
    <_>
      <sv_count>1</sv_count>
      <rho>4.0981710127042181e-01</rho>
      <alpha>
        1.</alpha>
      <index>
        0</index></_></decision_functions></opencv_ml_svm>
</opencv_storage>
