<?xml version="1.0"?>
<opencv_storage>
<opencv_ml_svm>
  <format>3</format>
  <svmType>C_SVC</svmType>
  <kernel>
    <type>LINEAR</type></kernel>
  <C>1.0000000000000001e-01</C>
  <term_criteria><iterations>100</iterations></term_criteria>
  <var_count>7</var_count>
  <class_count>3</class_count>
  <class_labels type_id="opencv-matrix">
    <rows>3</rows>
    <cols>1</cols>
    <dt>i</dt>
    <data>
      0 1 2</data></class_labels>
  <sv_total>3</sv_total>
  <support_vectors>
    <_>
      -5.79496555e-06 -1.35103051e-07 2.50188968e-05 3.50444971e-05
      3.08783114e-04 -1.38824416e-05 2.03694435e-05</_>
    <_>
      -8.25072135e-08 -9.99809391e-09 5.57209205e-07 3.22684027e-05
      1.67868222e-07 5.67452844e-06 3.61651473e-07</_>
    <_>
      8.97646089e-07 -2.15543512e-08 1.79806136e-06 3.38691316e-05
      -5.43617986e-08 9.56894837e-07 2.08295518e-07</_></support_vectors>
  <uncompressed_sv_total>33</uncompressed_sv_total>
  <uncompressed_support_vectors>
    <_>
      8.14235020e+00 2.83789992e-01 -1.12989998e+01 3.67411016e+04
      1.57434998e+03 3.61509991e+00 2.85626007e+02</_>
    <_>
      0. 1. 0. 0. 1.77233997e+03 0. 1.22206001e+02</_>
    <_>
      0. 1. -7.43159008e+00 0. 1.25890002e+03 0. 1.23239002e+01</_>
    <_>
      0. 1. 1.40662003e+01 0. 1.59268005e+03 0. 3.15753002e+01</_>
    <_>
      0. 1. -2.40953994e+00 0. 1536. 0. 3.96436005e+02</_>
    <_>
      0. 1. -8.23304977e+01 0. 8.37242004e+02 0. 4.49295013e+02</_>
    <_>
      0. 1. -180. 0. 7.99426025e+02 0. 4.69044006e+02</_>
    <_>
      0. 1. 7.75662003e+01 0. 7.49825012e+02 0. 1.62925003e+02</_>
    <_>
      0. 1. -180. 0. 1.34871997e+03 0. 2.15388000e+02</_>
    <_>
      0. 1. -1.95776999e+00 0. 9.29094971e+02 0. 5.74836998e+01</_>
    <_>
      0. 1. 8.15328979e+01 0. 1.08356995e+03 0. 3.66571991e+02</_>
    <_>
      0. 1. -6.69284973e+01 0. 7.64796997e+02 0. 2.46134003e+02</_>
    <_>
      4.61198997e+00 8.22360992e-01 -1.35859003e+01 8.55316992e+03
      1.07620996e+03 1.99993000e+01 1.37197998e+02</_>
    <_>
      0. 1. -2.19916992e+01 0. 1.00488000e+03 0. 4.29257011e+01</_>
    <_>
      0. 1. -1.59621000e+01 0. 9.03929993e+02 0. 5.56609001e+01</_>
    <_>
      0. 1. -4.44027996e+00 0. 7.89500000e+02 0. 1.92621002e+02</_>
    <_>
      0. 1. 1.35681000e+01 0. 1.64681995e+03 0. 2.13272003e+02</_>
    <_>
      0. 1. 1.09699001e+01 0. 1.64058997e+03 0. 1.76882992e+01</_>
    <_>
      0. 1. 1.28424997e+01 0. 1.63163000e+03 0. 2.52490997e+02</_>
    <_>
      0. 1. 9.87220955e+00 0. 1.83793994e+03 0. 4.87360992e+02</_>
    <_>
      1.40748997e+01 1.27445996e-01 4.19216995e+01 6.19591992e+04
      1.20301001e+03 9.16452026e+01 3.88332001e+02</_>
    <_>
      1.24880001e-01 1. 0. 1.12391996e+00 1.77125000e+03 0.
      1.68593002e+02</_>
    <_>
      2.20569992e+01 1.32034004e-01 -2.06044998e+01 5.90555000e+04
      1.31229004e+03 1.73281994e+01 3.73523010e+02</_>
    <_>
      6.66952014e-01 2.10126996e-01 3.88104010e+00 1.99635999e+03
      1.62570996e+03 5.03522015e+00 9.67764969e+01</_>
    <_>
      1.95703000e-01 1. 0. 4.89259005e+00 1.30248999e+03 0.
      1.90596998e+00</_>
    <_>
      0. 1. 0. 0. 542. 0. 6.19695984e+02</_>
    <_>
      4.73160982e+00 2.92510986e-01 -1.06983004e+01 3.16182007e+03
      1.33380005e+03 1.99179001e+01 1.06448997e+02</_>
    <_>
      0. 1. 4.69192982e+00 0. 1.58534998e+03 0. 5.21417007e+01</_>
    <_>
      0. 1. -1.45953999e+01 0. 1282. 0. 1.50869003e+02</_>
    <_>
      8. 1. 0. 8. 512. 0. 4.76438995e+02</_>
    <_>
      0. 1. 0. 0. 516. 0. 7.07164978e+02</_>
    <_>
      0. 1. -9.22379017e+00 0. 1314. 0. 6.90112991e+01</_>
    <_>
      0. 1. 0. 0. 515. 0. 6.89984985e+02</_></uncompressed_support_vectors>
  <decision_functions>
    <_>
      <sv_count>1</sv_count>
      <rho>1.1434249985034575e+00</rho>
      <alpha>
        1.</alpha>
      <index>
        0</index></_>
    <_>
      <sv_count>1</sv_count>
      <rho>1.1010687742747939e-01</rho>
      <alpha>
        1.</alpha>
      <index>
        1</index></_>
    <_>
      <sv_count>1</sv_count>
      <rho>1.8207457274263433e-01</rho>
      <alpha>
        1.</alpha>
      <index>
        2</index></_></decision_functions></opencv_ml_svm>
</opencv_storage>
