<?xml version="1.0"?>
<opencv_storage>
<opencv_ml_svm>
  <format>3</format>
  <svmType>C_SVC</svmType>
  <kernel>
    <type>LINEAR</type></kernel>
  <C>1.0000000000000001e-01</C>
  <term_criteria><iterations>100</iterations></term_criteria>
  <var_count>7</var_count>
  <class_count>2</class_count>
  <class_labels type_id="opencv-matrix">
    <rows>2</rows>
    <cols>1</cols>
    <dt>i</dt>
    <data>
      0 1</data></class_labels>
  <sv_total>1</sv_total>
  <support_vectors>
    <_>
      3.32633340e-06 9.32960447e-08 4.28384539e-07 -9.72494818e-05
      -7.34636330e-07 -1.19648212e-05 -1.10658414e-06</_></support_vectors>
  <uncompressed_sv_total>20</uncompressed_sv_total>
  <uncompressed_support_vectors>
    <_>
      4. 1. -90. 4. 5.39500000e+02 0. 6.17747986e+02</_>
    <_>
      0. 1. 5.56404018e+00 0. 1436. 0. 3.10363007e+01</_>
    <_>
      0. 1. -90. 0. 5.15500000e+02 0. 7.07630981e+02</_>
    <_>
      0. 1. 4.84135008e+00 0. 1.40070996e+03 0. 2.91658993e+01</_>
    <_>
      0. 1. -3.25247002e+00 0. 1.33250000e+03 0. 3.40037003e+01</_>
    <_>
      0. 1. -180. 0. 1.26050000e+03 0. 9.88041000e+01</_>
    <_>
      0. 1. -8.85614014e+00 0. 1312. 0. 1.86501007e+01</_>
    <_>
      4. 1. -90. 4. 5.39500000e+02 0. 7.17357971e+02</_>
    <_>
      3.18495011e+00 7.87141979e-01 1.04390001e+01 4.53154004e+03
      1.53678003e+03 8.71232986e+00 2.39740009e+01</_>
    <_>
      0. 1. 2.46707993e+01 0. 1.61190002e+03 0. 1.35904999e+02</_>
    <_>
      2.35702004e-02 1. 0. 2.12132007e-01 1.58504004e+03 0.
      2.77104004e+02</_>
    <_>
      2.25247994e-01 6.32456005e-01 -8.07825012e+01 1.50066996e+00
      1.57768994e+03 1.98434998e+02 2.70911987e+02</_>
    <_>
      0. 1. 1.68677006e+01 0. 1.62328003e+03 0. 2.15990005e+02</_>
    <_>
      2.76180000e+01 3.16152006e-01 1.18049002e+01 1.81916992e+04
      1.14126001e+03 2.30207996e+01 3.58143005e+02</_>
    <_>
      0. 1. 2.94510007e-01 0. 1498. 0. 7.46072998e+01</_>
    <_>
      2.43050995e+01 2.86781996e-01 2.86721001e+01 2.05641992e+04
      1.18640002e+03 4.83163986e+01 3.57265015e+02</_>
    <_>
      4. 1. -90. 4. 5.39500000e+02 0. 7.30562988e+02</_>
    <_>
      4.25190020e+00 9.84811008e-01 4.59617996e+00 6.70625977e+03
      1.51590002e+03 1.74430008e+01 1.26114998e+02</_>
    <_>
      0. 1. 1.55508003e+01 0. 1.62408997e+03 0. 2.09595001e+02</_>
    <_>
      0. 1. 1.01778002e+01 0. 1.60087000e+03 0. 5.01613007e+01</_></uncompressed_support_vectors>
  <decision_functions>
    <_>
      <sv_count>1</sv_count>
      <rho>-4.4549383908757345e-02</rho>
      <alpha>
        1.</alpha>
      <index>
        0</index></_></decision_functions></opencv_ml_svm>
</opencv_storage>
