<?xml version="1.0"?>
<opencv_storage>
<opencv_ml_svm>
  <format>3</format>
  <svmType>C_SVC</svmType>
  <kernel>
    <type>LINEAR</type></kernel>
  <C>1.0000000000000001e-01</C>
  <term_criteria><iterations>5000</iterations></term_criteria>
  <var_count>7</var_count>
  <class_count>2</class_count>
  <class_labels type_id="opencv-matrix">
    <rows>2</rows>
    <cols>1</cols>
    <dt>i</dt>
    <data>
      0 1</data></class_labels>
  <sv_total>1</sv_total>
  <support_vectors>
    <_>
      1.86734655e-06 7.20068982e-08 1.36321637e-06 -5.27362390e-05
      7.44682040e-07 -1.61004937e-05 -1.38969983e-06</_></support_vectors>
  <uncompressed_sv_total>19</uncompressed_sv_total>
  <uncompressed_support_vectors>
    <_>
      0. 1. -9.34482002e+00 0. 1.32134998e+03 0. 4.81516991e+01</_>
    <_>
      0. 1. 0. 0. 1595. 0. 1.04634003e+02</_>
    <_>
      0. 1. 90. 0. 1583. 0. 1.14500999e+02</_>
    <_>
      0. 1. 4.13092003e+01 0. 1.59150000e+03 0. 1.49901993e+02</_>
    <_>
      0. 1. 0. 0. 1.55750000e+03 0. 9.85012970e+01</_>
    <_>
      0. 1. 1.60403996e+01 0. 1.58888000e+03 0. 3.11411987e+02</_>
    <_>
      0. 1. -1.80673008e+01 0. 1.30781006e+03 0. 1.53264008e+02</_>
    <_>
      0. 1. 8.18929005e+00 0. 1781. 0. 1.90307007e+02</_>
    <_>
      0. 1. 5.22765999e+01 0. 1.72615002e+03 0. 2.48120995e+01</_>
    <_>
      0. 1. 9.62720013e+00 0. 1.78160999e+03 0. 8.39122009e+00</_>
    <_>
      6.34423018e+00 9.98275995e-01 -5.19019985e+00 1.06830996e+04
      9.88156982e+02 1.85207996e+01 2.03983002e+02</_>
    <_>
      8.56684971e+00 3.00006986e-01 -1.10867004e+01 3.38208984e+04
      1.05981006e+03 3.12233009e+01 1.12358002e+02</_>
    <_>
      0. 1. -3.14983997e+01 0. 1.26627002e+03 0. 3.79816010e+02</_>
    <_>
      0. 1. 90. 0. 1.06309998e+03 0. 2.25242004e+02</_>
    <_>
      0. 1. -7.02227020e+00 0. 9.47843018e+02 0. 4.55931000e+02</_>
    <_>
      1.93803005e+01 1.09194003e-01 1.12637997e+01 8.99892969e+03
      1.13763000e+03 6.74723969e+01 1.29320999e+02</_>
    <_>
      8.08425999e+00 2.92481005e-01 -1.40560999e+01 3.79276016e+04
      1.13150000e+03 3.24241982e+01 2.61575989e+02</_>
    <_>
      3.30086984e-02 1. -1.11681995e+01 6.22088003e+00 7.59273010e+02
      1.90735000e-06 330.</_>
    <_>
      0. 1. -180. 0. 1.28185999e+03 0. 2.60742004e+02</_></uncompressed_support_vectors>
  <decision_functions>
    <_>
      <sv_count>1</sv_count>
      <rho>-3.0575988736815907e-01</rho>
      <alpha>
        1.</alpha>
      <index>
        0</index></_></decision_functions></opencv_ml_svm>
</opencv_storage>
