<?xml version="1.0"?>
<opencv_storage>
<opencv_ml_svm>
  <format>3</format>
  <svmType>C_SVC</svmType>
  <kernel>
    <type>LINEAR</type></kernel>
  <C>1.0000000000000001e-01</C>
  <term_criteria><iterations>1000</iterations></term_criteria>
  <var_count>1024</var_count>
  <class_count>9</class_count>
  <class_labels type_id="opencv-matrix">
    <rows>9</rows>
    <cols>1</cols>
    <dt>i</dt>
    <data>
      0 1 2 3 4 5 6 7 8</data></class_labels>
  <sv_total>36</sv_total>
  <support_vectors>
    <_>
      1.27167605e-05 3.35577024e-05 4.69488004e-05 4.78044458e-05
      4.07463704e-05 4.33742389e-05 4.87210236e-05 5.39506582e-05
      4.49335530e-05 5.16876753e-05 3.11775730e-05 4.40779077e-05
      5.54751459e-05 3.42479289e-05 1.72561722e-05 3.92907605e-05
      2.34586023e-05 2.99087696e-05 4.83078657e-05 3.27368871e-05
      5.08320300e-05 5.32469894e-05 5.32469894e-05 4.10503235e-05
      5.08320300e-05 5.16876753e-05 5.58748579e-05 4.45338410e-05
      5.08320300e-05 3.93390328e-05 5.08320300e-05 3.28025271e-05
      -2.87997063e-05 4.79215923e-05 5.26953008e-05 4.28225467e-05
      4.21188779e-05 4.80521849e-05 4.71965359e-05 4.80521849e-05
      5.09840065e-05 5.18396519e-05 3.55167322e-05 3.69240697e-05
      5.46194970e-05 3.26886147e-05 1.58488328e-05 9.95035771e-06
      4.90115344e-05 -1.05597455e-05 -3.83756633e-05 -1.41817945e-05
      3.76277385e-05 3.18812417e-05 3.83314073e-05 5.09840065e-05
      5.18396519e-05 4.50855296e-05 4.94246924e-05 3.70760499e-05
      4.42298842e-05 3.20332183e-05 4.43818608e-05 3.29545073e-05
      -4.05277824e-05 4.52026798e-05 3.69240697e-05 4.50855296e-05
      4.46858176e-05 5.15356987e-05 4.92727158e-05 5.18396519e-05
      5.91454664e-05 5.46543270e-05 4.43818608e-05 4.33742389e-05
      3.45091103e-05 2.59344924e-05 4.35127731e-05 5.05494609e-05
      1.94087534e-06 -9.55319774e-05 -1.18457043e-04 -2.82417295e-05
      5.08320300e-05 3.91870562e-05 3.01699492e-05 3.53647556e-05
      5.18396519e-05 4.50855296e-05 5.67305069e-05 3.69240697e-05
      4.99763846e-05 3.94910094e-05 5.09840065e-05 3.46657980e-05
      -4.42938654e-05 3.30060138e-05 3.14815261e-05 3.35925324e-05
      4.64928671e-05 5.06800534e-05 4.21188779e-05 5.23913441e-05
      5.01283612e-05 3.83314073e-05 5.16876753e-05 3.67720932e-05
      3.11427430e-05 2.66381612e-05 5.34812862e-05 2.23124443e-05
      -1.29246371e-04 -1.55806934e-04 -1.31661334e-04 -2.09359168e-05
      5.82898210e-05 5.89934898e-05 4.42298842e-05 2.30161131e-05
      5.16876753e-05 4.33742389e-05 5.74341757e-05 4.33742389e-05
      5.15356987e-05 4.01946781e-05 5.25433206e-05 4.12679437e-05
      -5.16345099e-05 3.89044872e-05 4.03466547e-05 3.84833875e-05
      3.49088223e-05 4.49335530e-05 4.69488004e-05 5.23913441e-05
      3.74757619e-05 3.60684244e-05 5.82898210e-05 3.18812417e-05
      4.53546563e-05 3.21155349e-05 8.25250754e-06 -1.07619446e-04
      -1.43306315e-04 -1.42754623e-04 -1.31813315e-04 -2.83937079e-05
      3.93390328e-05 4.66448473e-05 5.82898210e-05 3.70760499e-05
      4.42298842e-05 4.40779077e-05 5.08320300e-05 3.67720932e-05
      5.23913441e-05 4.01946781e-05 5.59659056e-05 3.20988584e-05
      -5.24600364e-05 5.07315599e-05 4.31566186e-05 4.44729085e-05
      3.86353640e-05 4.45338410e-05 4.36781920e-05 4.25185935e-05
      6.12564763e-05 3.03219258e-05 5.82898210e-05 5.96971586e-05
      6.17733313e-05 -2.33508781e-05 -7.82442148e-05 -1.47080340e-04
      -1.23499878e-04 -1.42754623e-04 -1.52475390e-04 -2.26472093e-05
      3.84833875e-05 4.00427016e-05 5.16876753e-05 5.09840065e-05
      4.42298842e-05 4.33742389e-05 5.75861523e-05 4.35262154e-05
      5.74341757e-05 3.94910094e-05 6.21074068e-05 3.95566494e-05
      -4.43079989e-05 7.32213884e-05 7.02942780e-05 4.21489967e-05
      4.92117833e-05 4.45338410e-05 4.33742389e-05 4.89078302e-05
      6.71549496e-05 2.38717585e-05 5.68824835e-05 5.81378445e-05
      5.01283612e-05 -9.45671345e-05 -1.25314866e-04 -1.00713347e-04
      -1.44713646e-04 -1.50060427e-04 -1.58221897e-04 -9.44291969e-06
      5.09840065e-05 4.59411785e-05 4.59411785e-05 3.77797187e-05
      5.16876753e-05 5.08320300e-05 6.33326490e-05 5.18396519e-05
      5.74341757e-05 4.69488004e-05 7.81216586e-05 4.46905287e-05
      -1.56993895e-06 1.49069951e-04 1.32361456e-04 6.65677362e-05
      4.51765773e-05 4.86600948e-05 4.99763846e-05 5.23913441e-05
      3.10255964e-05 3.83314073e-05 5.81378445e-05 3.27368871e-05
      2.96182570e-05 -8.19145353e-05 -1.22535028e-04 -1.27577849e-04
      -1.57917937e-04 -1.30253989e-04 -1.38415460e-04 -1.98512839e-06
      3.77797187e-05 4.52375098e-05 5.18396519e-05 3.86353640e-05
      5.23913441e-05 4.57891983e-05 5.65785267e-05 4.60931551e-05
      5.74341757e-05 4.86600948e-05 7.99240006e-05 4.15109680e-05
      -3.29491450e-05 5.97484395e-05 1.60688825e-04 9.85962397e-05
      6.94132250e-05 3.24329339e-05 5.02803377e-05 5.29430363e-05
      5.82898210e-05 3.11775730e-05 5.08320300e-05 5.15356987e-05
      1.13711385e-05 -1.01017300e-04 -1.26018538e-04 -1.06060128e-04
      -8.89298390e-05 -1.43306315e-04 -1.38415460e-04 -8.43529597e-06
      5.75861523e-05 4.57891983e-05 4.35262154e-05 5.01283612e-05
      5.08320300e-05 5.06800534e-05 4.99763846e-05 5.33989696e-05
      5.15356987e-05 5.93884906e-05 9.44699859e-05 4.98244044e-05
      -3.09393014e-04 -2.07491496e-04 1.59002942e-04 8.41667133e-05
      6.20464780e-05 5.56619525e-05 5.68824835e-05 3.93390328e-05
      5.74341757e-05 2.44234507e-05 4.42298842e-05 5.82898210e-05
      9.65984600e-06 -9.44151543e-05 -8.05071977e-05 5.47266245e-06
      -8.97854843e-05 -1.44313934e-04 -1.38567440e-04 -7.73162719e-06
      5.16876753e-05 3.90350760e-05 4.42298842e-05 4.35262154e-05
      4.99763846e-05 4.32222623e-05 4.33742389e-05 4.59411785e-05
      5.41026384e-05 6.28110793e-05 1.05593390e-04 4.75004927e-05
      -6.48795220e-04 -3.70529888e-04 1.45338010e-04 9.82266502e-05
      6.70893060e-05 5.32469894e-05 6.40363214e-05 4.56372218e-05
      5.72821955e-05 4.33742389e-05 6.40363214e-05 4.40779077e-05
      3.91334743e-06 -2.83937079e-05 1.19228298e-05 6.57476121e-05
      -8.47426491e-05 -1.30253989e-04 -1.31261622e-04 -6.32428919e-06
      5.32469894e-05 4.07463704e-05 4.52375098e-05 4.52375098e-05
      4.99763846e-05 4.98244044e-05 5.08320300e-05 5.16876753e-05
      5.41026384e-05 6.63856408e-05 1.19435710e-04 4.92117833e-05
      -7.71876541e-04 -3.18259699e-04 1.28007465e-04 1.08160326e-04
      6.79449513e-05 3.93390328e-05 5.23913441e-05 6.78586148e-05
      5.89934898e-05 5.65785267e-05 6.40363214e-05 3.25849105e-05
      3.10255964e-05 2.44234507e-05 4.57891983e-05 4.50855296e-05
      -8.54463215e-05 -1.31109642e-04 -1.23803824e-04 -4.25813312e-07
      5.91454664e-05 4.66448473e-05 5.09840065e-05 4.94246924e-05
      5.16876753e-05 5.15356987e-05 5.16876753e-05 5.08320300e-05
      5.41026384e-05 6.89525768e-05 1.34837333e-04 5.76771999e-05
      -7.92377221e-04 -2.93866353e-04 1.20397694e-04 9.48040615e-05
      4.72828724e-05 3.28888636e-05 5.23913441e-05 6.57476121e-05
      6.64512772e-05 4.43818608e-05 4.49335530e-05 4.49335530e-05
      6.40363214e-05 3.01699492e-05 4.40779077e-05 4.42298842e-05
      -1.03693441e-04 -1.31109642e-04 -1.11303212e-04 1.03635148e-05
      5.75861523e-05 4.49335530e-05 4.35262154e-05 4.35262154e-05
      4.50855296e-05 4.40779077e-05 5.08320300e-05 4.99763846e-05
      5.41026384e-05 7.23751655e-05 1.36791656e-04 5.36419939e-05
      -8.20001587e-04 -3.74651427e-04 1.28620086e-04 9.69760003e-05
      5.27254197e-05 5.41026384e-05 6.38843412e-05 4.40779077e-05
      4.00427016e-05 4.43818608e-05 6.48919668e-05 5.08320300e-05
      5.67305069e-05 3.60684244e-05 5.65785267e-05 4.42298842e-05
      -1.03693441e-04 -1.31109642e-04 -1.11303212e-04 1.03635148e-05
      5.09840065e-05 4.00427016e-05 4.52375098e-05 3.77797187e-05
      4.42298842e-05 4.40779077e-05 5.08320300e-05 4.99763846e-05
      5.58139291e-05 7.40864562e-05 1.47672035e-04 5.53532846e-05
      -8.81062530e-04 -4.14967944e-04 1.28529035e-04 8.43843300e-05
      6.26590991e-05 5.49582837e-05 5.91454664e-05 4.56372218e-05
      3.25849105e-05 5.75861523e-05 6.48919668e-05 3.18812417e-05
      3.77797187e-05 5.67305069e-05 5.82898210e-05 3.86353640e-05
      -9.77949676e-05 -1.24507496e-04 -1.03845421e-04 4.61701620e-06
      5.25433206e-05 4.00427016e-05 4.50855296e-05 3.84833875e-05
      4.33742389e-05 4.42298842e-05 5.08320300e-05 5.08320300e-05
      5.73732432e-05 7.30788306e-05 1.37647308e-04 5.44976392e-05
      -9.38149169e-04 -3.86848085e-04 1.18352327e-04 6.13072843e-05
      5.22346563e-05 4.10503235e-05 3.35925324e-05 6.38843412e-05
      5.57228814e-05 4.26705701e-05 4.99763846e-05 4.42298842e-05
      6.33326490e-05 3.76277385e-05 4.57891983e-05 2.54310744e-05
      -7.71328851e-05 -1.11151232e-04 -9.79469405e-05 1.05154922e-05
      4.50855296e-05 3.83314073e-05 4.42298842e-05 4.35262154e-05
      3.60684244e-05 4.01946781e-05 4.50855296e-05 4.59411785e-05
      5.82288922e-05 6.47653942e-05 1.32513422e-04 4.44729085e-05
      -9.51131806e-04 -3.35989957e-04 1.21531892e-04 6.37831763e-05
      6.68462817e-05 4.08983469e-05 6.90182205e-05 5.05280732e-05
      5.65785267e-05 4.18149248e-05 4.33742389e-05 5.23913441e-05
      4.35262154e-05 4.40779077e-05 4.49335530e-05 2.85497044e-05
      -9.03371765e-05 -1.36000497e-04 -9.59879108e-05 3.10255964e-05
      4.50855296e-05 5.16876753e-05 4.60931551e-05 3.86353640e-05
      5.25433206e-05 4.59411785e-05 5.91454664e-05 3.76277385e-05
      6.15604295e-05 6.32060764e-05 1.23713937e-04 4.61842028e-05
      -9.12835239e-04 -3.29539791e-04 1.35591821e-04 8.53009042e-05
      5.46496158e-05 5.16876753e-05 3.66201166e-05 2.91623255e-05
      5.08320300e-05 4.26705701e-05 4.99763846e-05 5.16876753e-05
      5.16876753e-05 5.64265501e-05 4.49335530e-05 2.69903885e-05
      -1.03693441e-04 -1.36152477e-04 -1.01886391e-04 2.51271194e-05
      4.33742389e-05 5.08320300e-05 4.50855296e-05 3.77797187e-05
      5.01283612e-05 4.59411785e-05 5.92974429e-05 3.94910094e-05
      6.08567607e-05 5.90798263e-05 1.02717786e-04 3.94910094e-05
      -9.13386932e-04 -1.65893507e-04 1.34184491e-04 7.03853220e-05
      6.99649099e-05 5.33989696e-05 5.57228814e-05 6.66032574e-05
      4.42298842e-05 4.35262154e-05 4.42298842e-05 4.42298842e-05
      4.50855296e-05 5.08320300e-05 4.56372218e-05 2.68384119e-05
      -1.05404732e-04 -1.36856135e-04 -9.61398910e-05 3.08736162e-05
      4.42298842e-05 5.08320300e-05 4.35262154e-05 4.28225467e-05
      4.99763846e-05 5.25433206e-05 6.00011117e-05 4.01946781e-05
      5.33989696e-05 5.46496158e-05 8.28859411e-05 2.67473642e-05
      -7.95795000e-04 4.14201259e-06 1.34888149e-04 7.03853220e-05
      7.51597181e-05 3.37445126e-05 3.90350760e-05 5.13837222e-05
      4.59411785e-05 4.43818608e-05 4.49335530e-05 4.50855296e-05
      4.42298842e-05 4.99763846e-05 4.49335530e-05 1.27784760e-05
      -1.11854897e-04 -1.30253989e-04 -8.95377452e-05 3.17292652e-05
      4.42298842e-05 5.16876753e-05 4.35262154e-05 4.19669013e-05
      4.91207356e-05 5.32469894e-05 5.82898210e-05 3.84833875e-05
      5.32469894e-05 5.19306996e-05 6.66286651e-05 2.48840934e-05
      -7.30433618e-04 -2.07072517e-05 1.39870055e-04 9.82875790e-05
      6.57730197e-05 7.25927821e-05 4.89078302e-05 6.16213583e-05
      5.32469894e-05 5.01283612e-05 5.65785267e-05 5.23913441e-05
      5.08320300e-05 5.08320300e-05 4.49335530e-05 1.86769521e-05
      -1.18457043e-04 -1.36152477e-04 -8.15282619e-05 3.17292652e-05
      3.93390328e-05 4.67968239e-05 3.76277385e-05 3.45091103e-05
      4.99763846e-05 4.50855296e-05 5.08320300e-05 3.76277385e-05
      5.25433206e-05 4.29135944e-05 5.63609101e-05 2.99269232e-05
      -6.53652882e-04 7.33731358e-05 1.72293570e-04 1.45196143e-04
      9.06168789e-05 6.63247120e-05 4.85081146e-05 3.86353640e-05
      4.66448473e-05 4.50855296e-05 4.33742389e-05 4.40779077e-05
      3.67720932e-05 5.81378445e-05 4.49335530e-05 1.71176362e-05
      -1.18457043e-04 -1.30405970e-04 -7.49261162e-05 3.17292652e-05
      3.27368871e-05 3.93390328e-05 3.76277385e-05 3.45091103e-05
      4.99763846e-05 4.42298842e-05 5.09840065e-05 3.86353640e-05
      5.42546150e-05 4.20579490e-05 4.88120713e-05 2.00541708e-05
      -4.78356815e-04 1.31115972e-04 1.88702819e-04 1.56344948e-04
      1.31201843e-04 7.54281500e-05 6.66032574e-05 5.86895330e-05
      3.84833875e-05 3.69240697e-05 4.99763846e-05 4.49335530e-05
      3.60684244e-05 5.81378445e-05 3.67720932e-05 3.91334743e-06
      -1.25762861e-04 -1.29550332e-04 -7.32148255e-05 3.91870562e-05
      3.20332183e-05 4.59411785e-05 4.42298842e-05 4.28225467e-05
      5.08320300e-05 4.49335530e-05 5.33989696e-05 3.27368871e-05
      5.32469894e-05 3.86353640e-05 4.69488004e-05 1.81909018e-05
      -1.96384091e-04 1.42092802e-04 1.78900416e-04 1.70774481e-04
      1.40522912e-04 1.01315156e-04 6.00921594e-05 5.33989696e-05
      4.59411785e-05 5.01283612e-05 5.82898210e-05 4.33742389e-05
      4.18149248e-05 4.92727158e-05 3.76277385e-05 -2.53682015e-06
      -1.30805682e-04 -1.34441187e-04 -7.15035349e-05 3.34405559e-05
      3.27368871e-05 4.00427016e-05 3.91870562e-05 3.79316953e-05
      4.49335530e-05 4.57891983e-05 5.33989696e-05 3.18812417e-05
      5.06800534e-05 3.60684244e-05 4.69488004e-05 1.90465471e-05
      1.33090522e-04 1.35262468e-04 1.35171416e-04 1.18301512e-04
      9.60547113e-05 7.93113795e-05 5.62089335e-05 5.30950128e-05
      5.25433206e-05 3.76277385e-05 4.42298842e-05 3.91870562e-05
      4.43818608e-05 4.35262154e-05 5.39506582e-05 -2.73835951e-07
      -1.14634742e-04 -1.54247609e-04 -7.61466508e-05 2.59827648e-05
      3.18812417e-05 3.76277385e-05 5.67305069e-05 3.04739042e-05
      5.16876753e-05 4.67968239e-05 4.52375098e-05 4.35262154e-05
      5.16876753e-05 5.35509462e-05 4.18149248e-05 3.39621292e-05
      1.06388106e-04 1.01254227e-04 9.21460742e-05 7.69874678e-05
      6.48564455e-05 5.03104566e-05 5.58139291e-05 4.73485161e-05
      5.25433206e-05 4.59411785e-05 4.59411785e-05 4.07463704e-05
      4.67968239e-05 4.01946781e-05 5.96971586e-05 5.62463993e-06
      -1.22948186e-04 -1.55407208e-04 -7.05521234e-05 3.81794307e-05
      4.40779077e-05 3.81794307e-05 4.91207356e-05 3.03219258e-05
      5.15356987e-05 4.39259311e-05 4.06553227e-05 2.99269232e-05
      3.55214434e-05 3.39621292e-05 2.98358755e-05 3.03875677e-05
      5.68516734e-05 6.18945051e-05 5.87758695e-05 4.96067878e-05
      4.77435169e-05 5.65175978e-05 5.98491351e-05 5.39506582e-05
      5.32469894e-05 4.50855296e-05 5.39506582e-05 4.07463704e-05
      3.93390328e-05 3.03219258e-05 5.81378445e-05 1.65036317e-06
      -1.21084915e-04 -1.55255242e-04 -7.14077760e-05 4.15109680e-05
      3.97996773e-05 3.21899061e-05 3.65290689e-05 2.17654633e-05
      4.04122984e-05 3.28025271e-05 3.03875677e-05 2.37854219e-05
      2.44890907e-05 2.30817532e-05 2.96838989e-05 3.78453587e-05
      4.33133100e-05 5.07711011e-05 4.29135944e-05 4.86600948e-05
      4.76524692e-05 4.83561380e-05 5.49582837e-05 5.41026384e-05
      4.60931551e-05 3.77797187e-05 5.08320300e-05 3.81794307e-05
      4.16629446e-05 3.42051535e-05 4.72574684e-05 -2.62786807e-06
      -1.41225421e-04 -1.68793602e-04 -8.26831529e-05 2.30817532e-05
      2.89802283e-05 1.71832780e-05 2.89802283e-05 2.23780844e-05
      2.96838989e-05 3.69897134e-05 3.62860446e-05 2.96838989e-05
      2.37854219e-05 2.30817532e-05 2.96838989e-05 3.94046729e-05
      5.25433206e-05 5.41026384e-05 4.67968239e-05 3.91870562e-05
      4.07463704e-05 4.66448473e-05 5.32469894e-05 5.22393675e-05
      3.99516539e-05 2.99269232e-05 2.82156307e-05 3.36581761e-05
      4.38958123e-05 2.39374003e-05 3.03875677e-05 -3.91522262e-05
      -1.59563584e-04 -1.58156254e-04 -7.70886327e-05 2.37854219e-05
      3.55823722e-05 2.53447379e-05 2.98358755e-05 2.98358755e-05
      3.05395442e-05 3.71416900e-05 3.71416900e-05 3.71416900e-05
      3.03875677e-05 2.30817532e-05 2.96838989e-05 3.10912365e-05
      2.47721706e-04 7.80607297e-05 7.21622564e-05 5.82542998e-05
      1.96013352e-04 2.09065664e-04 2.16827408e-04 4.49991931e-05
      7.89163751e-05 3.03875677e-05 2.37854219e-05 2.44890907e-05
      2.96838989e-05 1.64796093e-05 2.44890907e-05 -4.64580371e-05
      -8.75222668e-06 2.81062039e-05 7.39403476e-05 9.65153522e-05
      1.08312306e-04 1.04524835e-04 2.16744156e-05 1.64796093e-05
      1.94671651e-04 1.43089856e-04 1.14762472e-04 2.44208088e-04
      2.48577358e-04 1.31748835e-04 2.96838989e-05 3.69897134e-05
      2.08361991e-04 2.08361991e-04 2.48577358e-04 1.73352546e-05
      2.34517429e-04 2.53447379e-05 4.02603182e-05 3.83970510e-05
      2.47569755e-04 2.47569755e-04 2.45306757e-04 2.37854219e-05
      3.45138214e-05 1.88945705e-05 3.38101527e-05 1.95021712e-04
      -3.19610153e-05 -5.84204099e-05 -8.95617723e-06 3.03875677e-05
      2.89802283e-05 2.51927595e-05 2.16744156e-05 9.87746353e-06
      2.42344817e-04 4.02603182e-05 3.69897134e-05 3.62860446e-05
      3.03875677e-05 2.96838989e-05 2.89802283e-05 3.62860446e-05
      3.62860446e-05 3.62860446e-05 2.96838989e-05 2.23780844e-05
      1.71832780e-05 3.10912365e-05 3.03875677e-05 3.10912365e-05
      1.80981311e-04 2.34335326e-04 1.66496247e-04 1.03117498e-04
      1.03117498e-04 9.06168789e-05 5.01940012e-05 3.54444364e-06
      2.15953314e-05 2.37063396e-05 4.93289335e-05 5.65175978e-05
      3.86353640e-05 3.88830995e-05 4.28225467e-05 3.93390328e-05
      5.08320300e-05 5.23913441e-05 5.16876753e-05 4.33742389e-05
      4.57891983e-05 4.59411785e-05 5.18396519e-05 5.23913441e-05</_>
    <_>
      2.27287834e-04 2.18567890e-04 4.47987317e-04 5.34567749e-04
      5.75632497e-04 4.54832887e-04 5.72461402e-04 5.63826354e-04
      5.57740277e-04 3.96941236e-04 4.48378007e-04 4.52107546e-04
      4.57894552e-04 5.54431637e-04 6.83252176e-04 6.81409787e-04
      5.58799424e-04 5.48009819e-04 5.32385020e-04 4.71099658e-04
      4.81858297e-04 3.77665332e-04 3.62382591e-04 5.12425846e-04
      4.68480663e-04 3.75126809e-04 3.60167818e-04 4.64493845e-04
      5.75912709e-04 5.68377960e-04 5.44339069e-04 3.49302165e-04
      3.23003944e-04 3.44565517e-04 5.51442965e-04 6.54333271e-04
      6.75550429e-04 5.62403875e-04 4.66512487e-04 5.70220058e-04
      4.64106794e-04 4.36489907e-04 4.53230285e-04 4.67663252e-04
      5.51723933e-04 5.55293576e-04 6.05250709e-04 3.32825410e-04
      5.40392939e-04 5.50950586e-04 5.92624128e-04 5.71994809e-04
      3.65088345e-04 2.65285547e-04 2.58170039e-04 3.76101263e-04
      4.58723400e-04 4.68404789e-04 4.70261060e-04 4.76783549e-04
      6.73299131e-04 6.67393790e-04 5.33992774e-04 3.09986674e-04
      2.22606002e-04 4.20996977e-04 5.45356539e-04 6.67421962e-04
      6.75571733e-04 5.57188585e-04 5.64659480e-04 5.64370537e-04
      4.62159165e-04 4.64326236e-04 4.74742206e-04 5.23256836e-04
      4.25746490e-04 3.25173984e-04 1.65636258e-04 7.23888879e-05
      1.56332448e-04 2.79978063e-04 4.34715912e-04 4.55243455e-04
      2.61691486e-04 2.58916203e-04 3.65030864e-04 5.65687020e-04
      5.51377481e-04 4.48254694e-04 4.54872003e-04 4.59823757e-04
      6.58177829e-04 7.68526399e-04 6.43337786e-04 2.82586348e-04
      2.05028060e-04 3.99862503e-04 5.46466210e-04 5.68940770e-04
      6.77944859e-04 5.67436684e-04 5.67585172e-04 5.63480251e-04
      4.69500432e-04 4.47100931e-04 4.27987950e-04 3.06581962e-04
      2.81479879e-04 2.54508428e-04 1.58951763e-04 6.24319291e-05
      1.49013969e-04 1.43666199e-04 2.65173701e-04 2.95487058e-04
      1.35371025e-04 2.46039592e-04 4.65857884e-04 5.82341105e-04
      5.44797280e-04 4.52221866e-04 3.57937417e-04 4.56007518e-04
      7.72602099e-04 7.68968428e-04 6.46780070e-04 2.11662089e-04
      2.46316748e-04 4.97918634e-04 5.32970414e-04 5.65007445e-04
      5.63090725e-04 4.66945727e-04 5.72481193e-04 5.66777831e-04
      6.61173195e-04 5.05040516e-04 3.05413880e-04 3.14994482e-04
      2.71522353e-04 2.79646105e-04 1.74990826e-04 3.86366191e-05
      2.69833836e-04 2.74068472e-04 2.69715645e-04 2.13309744e-04
      2.06112920e-04 1.06532549e-04 2.43550618e-04 3.83102888e-04
      5.26915828e-04 4.27771214e-04 3.60059290e-04 4.64450597e-04
      5.76858933e-04 6.66569918e-04 4.44729580e-04 1.76291636e-04
      2.29896745e-04 3.95170064e-04 4.34872753e-04 4.66911355e-04
      5.65009017e-04 4.57810762e-04 5.67026553e-04 6.78265234e-04
      7.83058174e-04 4.74044209e-04 2.79037165e-04 3.10774049e-04
      2.65729992e-04 2.65807234e-04 1.68213388e-04 1.70932981e-04
      2.62334623e-04 1.88151593e-04 1.74372268e-04 2.12718704e-04
      2.04213633e-04 2.09533304e-04 1.18452132e-04 3.08847695e-04
      4.45566140e-04 4.26383980e-04 3.65270418e-04 4.67611302e-04
      5.71219716e-04 5.62348927e-04 4.39587777e-04 1.99746515e-04
      1.19488919e-04 3.94009752e-04 4.50449239e-04 4.64960904e-04
      4.72466636e-04 3.50653543e-04 5.73940575e-04 6.78648765e-04
      6.70658832e-04 4.76665708e-04 2.18496381e-04 1.92318417e-04
      2.81131506e-04 3.17187660e-04 3.70469876e-04 2.84289563e-04
      1.85002413e-04 1.14667615e-04 1.39193042e-04 2.40246343e-04
      2.18290807e-04 1.24030557e-04 1.92612031e-04 3.89082183e-04
      4.38133982e-04 4.23536403e-04 4.66385507e-04 4.63188917e-04
      5.66402392e-04 5.60137967e-04 4.40356875e-04 1.99535731e-04
      1.02231905e-04 3.92162969e-04 4.35933063e-04 4.55925881e-04
      4.58866067e-04 4.63948556e-04 5.69427852e-04 6.60808815e-04
      6.69059053e-04 3.65519954e-04 2.06038152e-04 2.23716503e-04
      4.33327892e-04 5.42523281e-04 5.73661993e-04 4.62737604e-04
      4.47612198e-04 3.43000807e-04 2.90557771e-04 2.39718094e-04
      1.41893324e-04 -1.28723797e-04 -7.26222061e-06 2.00362498e-04
      4.41782380e-04 4.41172131e-04 4.67415404e-04 5.65549883e-04
      5.67716837e-04 5.59035572e-04 5.53956605e-04 3.30640934e-04
      1.02151367e-04 5.78572100e-04 1.48726685e-04 5.58973406e-04
      7.84669945e-04 4.66610276e-04 5.62928326e-04 4.65403049e-04
      6.62448409e-04 4.70841769e-04 3.80503770e-04 5.72770718e-04
      5.74960723e-04 4.70698229e-04 4.66839789e-04 3.55873781e-04
      4.62324591e-04 4.33748792e-04 3.69620509e-04 2.37588451e-04
      2.46038922e-04 1.06648906e-04 1.97719870e-04 2.76056526e-04
      4.27060964e-04 4.29817388e-04 4.81192081e-04 4.62372962e-04
      4.63339151e-04 4.58211522e-04 4.35229740e-04 4.43950907e-04
      -3.52562143e-04 4.65124671e-04 1.39300537e-04 5.44787967e-04
      6.72248716e-04 3.59041791e-04 5.73100173e-04 5.71964367e-04
      6.82395010e-04 5.40316862e-04 5.80590917e-04 5.70398988e-04
      4.56097594e-04 4.63051285e-04 4.66912257e-04 3.56365286e-04
      4.56932059e-04 3.97012453e-04 5.05679462e-04 2.34315827e-04
      2.03659569e-04 2.23053750e-04 2.34022882e-04 2.85189046e-04
      3.11769370e-04 3.33640812e-04 3.58784222e-04 4.41466575e-04
      5.75085985e-04 5.40025532e-04 4.33251844e-04 3.00950487e-04
      -8.70102202e-04 7.43635319e-05 8.67525378e-05 5.44964278e-04
      6.72832422e-04 3.64063075e-04 5.68528369e-04 6.80801168e-04
      6.54922740e-04 6.84491068e-04 6.79591671e-04 6.60233141e-04
      4.65140736e-04 4.57247545e-04 4.58038208e-04 3.64947569e-04
      4.30817803e-04 5.14846179e-04 5.03621879e-04 3.42677697e-04
      2.31626356e-04 2.04712574e-04 1.72234577e-04 1.71677893e-04
      4.39541211e-04 3.47702357e-04 2.58376938e-04 4.54749563e-04
      5.58901229e-04 5.51322184e-04 3.94301052e-04 -1.01583471e-04
      -1.06427947e-03 -8.01469505e-05 1.44626625e-04 5.58235624e-04
      6.85867795e-04 3.69416637e-04 5.68480056e-04 6.67222077e-04
      6.74484530e-04 6.75662595e-04 6.63887768e-04 6.65192318e-04
      4.58636088e-04 4.59352304e-04 4.68289101e-04 3.52433679e-04
      4.06134786e-04 5.02265757e-04 5.86053589e-04 3.36856494e-04
      2.06474258e-04 1.25442821e-04 1.49812826e-04 1.84454548e-04
      5.41536137e-04 4.69072373e-04 4.70301165e-04 5.73587313e-04
      6.70982990e-04 5.48924610e-04 3.78585828e-04 -2.37198656e-05
      -9.68241657e-04 -1.56173497e-04 2.78973719e-04 5.53762948e-04
      6.89132721e-04 4.48616134e-04 5.65033406e-04 5.76603983e-04
      6.70836656e-04 7.80179980e-04 6.65429223e-04 6.79192017e-04
      4.63406934e-04 5.64775837e-04 4.60344425e-04 4.10578330e-04
      4.93888801e-04 6.02486602e-04 6.14402059e-04 3.27919697e-04
      1.87271638e-04 1.59614428e-04 1.55781730e-04 1.79582159e-04
      5.46644384e-04 5.77992236e-04 5.57278632e-04 5.72524208e-04
      6.80427533e-04 5.57100866e-04 4.84931137e-04 2.40673879e-04
      -1.18120899e-03 -3.07904324e-04 3.06167291e-04 5.60785062e-04
      6.87114778e-04 4.64661076e-04 5.65186434e-04 5.75037440e-04
      6.73821603e-04 6.63700223e-04 6.67745480e-04 5.74660313e-04
      4.49921848e-04 5.68096992e-04 5.25565818e-04 3.86399392e-04
      4.99556598e-04 5.05139411e-04 5.10264304e-04 2.93415796e-04
      1.22633559e-04 1.76381043e-04 1.56065929e-04 2.00187875e-04
      4.64348472e-04 4.74965840e-04 4.62164317e-04 4.61676420e-04
      5.46056137e-04 5.58909029e-04 6.03361521e-04 3.78392113e-04
      -1.60606264e-03 -4.43183671e-04 4.21087490e-04 5.42342954e-04
      5.72885619e-04 3.51130089e-04 4.65265563e-04 5.75884595e-04
      6.73961942e-04 6.65036903e-04 6.83384249e-04 5.65371185e-04
      5.57590509e-04 6.33973745e-04 5.05184697e-04 5.13448904e-04
      5.03344578e-04 4.76229412e-04 3.19560000e-04 2.14182684e-04
      1.60321360e-04 1.67908889e-04 1.74293498e-04 4.29361884e-04
      4.70772677e-04 3.57445417e-04 3.49450216e-04 4.59872826e-04
      6.68612716e-04 6.69466041e-04 6.20432664e-04 2.70966499e-04
      -1.78620231e-03 -2.98597704e-04 4.06403240e-04 5.69616270e-04
      4.71399573e-04 2.49523757e-04 4.65789024e-04 6.69478381e-04
      5.66012284e-04 5.77271392e-04 5.61268593e-04 4.63232311e-04
      5.63731766e-04 5.16723841e-04 5.01943694e-04 5.04604366e-04
      5.03453484e-04 3.06333706e-04 2.03277421e-04 2.63120834e-04
      1.65213394e-04 1.86153236e-04 2.79754080e-04 6.71404821e-04
      5.70778793e-04 4.58852737e-04 3.64757492e-04 5.68224350e-04
      7.73388019e-04 6.62631763e-04 5.09886828e-04 1.59153991e-04
      -1.58157875e-03 -5.78967120e-05 5.12861589e-04 4.52227250e-04
      4.72252810e-04 3.45994893e-04 3.60607315e-04 5.68878953e-04
      5.60837216e-04 7.72977248e-04 6.75851363e-04 5.71734679e-04
      5.03295742e-04 5.16538741e-04 2.98933359e-04 3.95925803e-04
      2.43033806e-04 3.15635290e-04 2.35196349e-04 2.80174048e-04
      1.74461413e-04 1.60411233e-04 3.12200980e-04 5.63531998e-04
      5.66876261e-04 5.66600997e-04 4.56566690e-04 4.59559698e-04
      4.65231191e-04 4.56517155e-04 4.00093180e-04 -5.25472933e-05
      -1.56490889e-03 -2.40748603e-04 5.26114251e-04 4.63847042e-04
      4.68760292e-04 3.60902224e-04 3.53881682e-04 5.71216864e-04
      5.69623720e-04 6.76954340e-04 5.64410759e-04 4.24155500e-04
      6.06472429e-04 6.10662100e-04 3.76219425e-04 2.61965964e-04
      1.10464091e-04 2.22950359e-04 2.58639368e-04 2.69902230e-04
      1.66030586e-04 2.41611182e-04 4.47496190e-04 4.68166865e-04
      5.60758635e-04 4.70205152e-04 4.50606720e-04 4.70591767e-04
      4.59773408e-04 5.57117339e-04 5.04812051e-04 -6.99436714e-05
      -1.50800031e-03 -3.03362176e-04 4.27426188e-04 4.42235614e-04
      5.69533906e-04 3.55006283e-04 3.61541664e-04 5.74777718e-04
      4.59522998e-04 6.61771453e-04 5.68801304e-04 4.05508181e-04
      6.11422991e-04 6.03159075e-04 2.33170140e-04 2.20817921e-04
      1.53910296e-05 1.54295310e-04 2.63081514e-04 2.67253665e-04
      3.22119362e-04 4.00098477e-04 4.68127342e-04 4.63573233e-04
      5.71792014e-04 4.77030728e-04 3.60089121e-04 4.73646302e-04
      5.63796668e-04 6.62599050e-04 5.29241457e-04 -7.32120898e-05
      -1.07427849e-03 -2.52107187e-04 4.23022720e-04 4.65585530e-04
      5.69003401e-04 4.60011797e-04 3.59479280e-04 5.63975598e-04
      5.71770070e-04 6.54619012e-04 5.34178514e-04 5.00642345e-04
      5.86611161e-04 4.46492544e-04 1.24109923e-04 2.19020076e-04
      6.92688773e-05 1.67112012e-04 2.79029715e-04 3.14513425e-04
      4.69180901e-04 4.52206412e-04 4.61851771e-04 4.56076610e-04
      6.74900308e-04 4.63086792e-04 3.59660538e-04 4.65588266e-04
      5.65906346e-04 5.59629931e-04 5.28814329e-04 -9.27667570e-05
      -8.28088785e-04 -1.39112744e-04 4.14065202e-04 4.46990860e-04
      5.76910912e-04 4.63293749e-04 3.57494457e-04 5.73882426e-04
      6.60791993e-04 7.95103377e-04 6.29976159e-04 4.51917731e-04
      4.45754587e-04 3.28944734e-04 1.29807959e-04 1.56430484e-04
      1.71641892e-04 1.73253167e-04 3.45666631e-04 3.50599817e-04
      4.52411361e-04 4.68240294e-04 5.62266563e-04 5.71541546e-04
      5.82864974e-04 4.72509972e-04 3.60230333e-04 4.57931339e-04
      5.73018449e-04 5.60954271e-04 4.19979886e-04 -1.42660676e-04
      -6.74859679e-04 -1.74088073e-05 4.16325842e-04 4.49548505e-04
      5.74788428e-04 4.71069798e-04 3.52044270e-04 5.82653796e-04
      7.76439731e-04 7.68434897e-04 5.77691826e-04 3.59817408e-04
      3.53165029e-04 3.25899629e-04 9.87736494e-05 1.76335743e-04
      1.90854684e-04 2.59234366e-04 4.69356251e-04 4.60516487e-04
      4.65730001e-04 4.74708911e-04 5.60359797e-04 5.61710331e-04
      5.71390381e-04 4.71027422e-04 3.57691169e-04 4.52012377e-04
      5.61541296e-04 6.71900751e-04 2.91873759e-04 1.18994049e-05
      -5.01324073e-04 7.07506770e-05 3.98326578e-04 4.61006537e-04
      6.76265918e-04 4.52511158e-04 3.70451366e-04 4.71981039e-04
      6.69001718e-04 7.22709112e-04 3.72681883e-04 2.26945165e-04
      3.33833887e-04 3.37026286e-04 1.40921475e-04 8.68815405e-05
      2.70861376e-04 4.00818855e-04 5.61011024e-04 5.82069275e-04
      5.77024242e-04 5.49068965e-04 5.70986944e-04 5.59793785e-04
      5.59177657e-04 4.69806691e-04 4.69647581e-04 4.55068075e-04
      5.49762044e-04 5.52535173e-04 2.21958035e-04 1.80870338e-04
      -2.86355120e-04 1.70629617e-04 4.19114833e-04 5.71922399e-04
      6.74702809e-04 4.61970369e-04 3.63228581e-04 4.60620155e-04
      6.44144311e-04 5.45830058e-04 2.84138921e-04 1.14095892e-04
      3.22151609e-04 3.45790846e-04 1.81499126e-04 1.77959082e-04
      3.99740849e-04 4.51292814e-04 5.72416990e-04 5.62844507e-04
      5.61017951e-04 5.62554691e-04 5.46503928e-04 5.48539625e-04
      5.46151132e-04 5.54478902e-04 5.73239115e-04 5.68026560e-04
      5.68274932e-04 5.46501833e-04 2.34515712e-04 1.90274426e-04
      1.53085348e-04 3.48782487e-04 3.32517840e-04 5.65091032e-04
      5.62431524e-04 3.52535018e-04 4.59266768e-04 4.42295423e-04
      6.43853622e-04 5.94327343e-04 3.28210386e-04 2.32089442e-04
      3.35004355e-04 3.68758250e-04 1.94619875e-04 3.53555690e-04
      4.07399697e-04 5.17849752e-04 5.13774867e-04 5.12941217e-04
      5.13532432e-04 5.19530498e-04 4.00346034e-04 4.09670261e-04
      3.09889409e-04 4.65390389e-04 5.68213232e-04 5.65012509e-04
      4.46698279e-04 4.02214297e-04 2.40342735e-04 5.24614879e-04
      5.01815812e-04 5.40884736e-04 4.38406278e-04 6.70473732e-04
      6.82964339e-04 3.63126223e-04 5.41110639e-04 5.36858337e-04
      6.24771405e-04 4.90275736e-04 3.20593303e-04 2.31075508e-04
      3.73902411e-04 3.67907458e-04 2.71722733e-04 4.06172738e-04
      3.98103613e-04 4.02067759e-04 4.92192921e-04 5.02652023e-04
      5.10371989e-04 5.14876854e-04 3.95175826e-04 4.02090955e-04
      3.08654853e-04 3.62440274e-04 4.56353970e-04 4.64997283e-04
      4.63393313e-04 4.36340575e-04 3.43372958e-04 4.29655600e-04
      5.50667173e-04 5.60015556e-04 4.61388670e-04 6.78269891e-04
      6.80070254e-04 3.44482803e-04 5.49794466e-04 5.49992372e-04
      5.85718604e-04 4.37145121e-04 2.08321580e-04 1.61085714e-04
      3.53114301e-04 3.69670684e-04 3.56962031e-04 3.72056733e-04
      3.82151542e-04 3.84768035e-04 3.70997615e-04 3.76508746e-04
      3.63395753e-04 3.59478785e-04 3.56371223e-04 3.59894184e-04
      3.71878297e-04 4.69430204e-04 4.57118877e-04 5.66413742e-04
      5.70400618e-04 5.63263136e-04 5.54989616e-04 5.65604423e-04
      4.42956749e-04 5.52953512e-04 4.72100714e-04 6.60489430e-04
      5.62854286e-04 2.23310664e-04 4.48907609e-04 5.33812738e-04
      5.49287070e-04 4.51636530e-04 3.59534926e-04 2.39704401e-04
      3.43771884e-04 3.50125745e-04 2.06262077e-04 1.91946776e-04
      1.86502177e-04 1.78616581e-04 1.80044444e-04 2.80141830e-04
      1.65763908e-04 1.62583325e-04 1.67805949e-04 1.69653154e-04
      2.72865931e-04 4.68028593e-04 4.59967036e-04 4.46624210e-04
      6.70026697e-04 6.58874866e-04 6.77914533e-04 5.66914736e-04
      3.46678658e-04 5.57815714e-04 4.71919979e-04 6.46900968e-04
      5.65223803e-04 2.36589738e-04 4.47070226e-04 5.44073933e-04
      5.25968208e-04 4.46426653e-04 3.34239769e-04 2.24065443e-04
      3.36319063e-04 3.48920643e-04 1.09642846e-04 1.23372898e-04
      1.35174923e-04 1.20851961e-04 2.24223331e-04 2.40878493e-04
      1.43131445e-04 1.47239713e-04 2.58834480e-04 2.54479004e-04
      2.20475937e-04 3.55712284e-04 3.63813946e-04 4.50262014e-04
      5.63334092e-04 6.60618010e-04 5.69736061e-04 4.57875169e-04
      4.37922863e-04 5.60812710e-04 4.73868626e-04 6.65694533e-04
      5.21401118e-04 3.33786884e-04 5.32942475e-04 5.43048314e-04
      5.23503579e-04 4.69424471e-04 3.19924584e-04 2.37074040e-04
      4.15099377e-04 4.25038277e-04 1.26343628e-04 1.38207732e-04
      1.16296818e-04 2.23584037e-04 2.26735021e-04 2.37907079e-04
      1.42926641e-04 1.53884423e-04 2.70841527e-04 2.72875302e-04
      3.57836805e-04 4.56137030e-04 3.60487087e-04 4.58202296e-04
      5.61569002e-04 6.67856599e-04 5.65138063e-04 4.61963355e-04
      5.62155270e-04 5.66305011e-04 4.56605572e-04 6.51634124e-04
      6.08684612e-04 3.30500770e-04 5.44161536e-04 5.36849198e-04
      5.01520874e-04 4.80741524e-04 3.57813638e-04 2.23243522e-04
      3.43231077e-04 3.35132412e-04 1.22941376e-04 1.41228797e-04
      1.47136729e-04 2.64803093e-04 2.75456405e-04 2.82030262e-04
      1.97680944e-04 2.03310687e-04 3.16091900e-04 4.28855390e-04
      4.03780810e-04 5.68776624e-04 4.52155567e-04 5.57892607e-04
      5.58673346e-04 6.61753817e-04 6.68992463e-04 6.75782969e-04
      5.55380539e-04 5.68751246e-04 3.51480354e-04 5.44534996e-04
      5.55455859e-04 3.28962313e-04 4.43876401e-04 4.35784052e-04
      5.54256898e-04 5.36731619e-04 4.31868364e-04 3.25321045e-04
      4.25585458e-04 4.36330389e-04 2.37279542e-04 2.15687513e-04
      2.34688094e-04 3.39162449e-04 3.43934633e-04 3.46592307e-04
      2.73351994e-04 2.74904945e-04 3.81391932e-04 4.80968301e-04
      4.26157872e-04 5.79791144e-04 4.60057461e-04 5.69071970e-04
      5.75110840e-04 5.58955711e-04 6.72319205e-04 6.68325461e-04</_>
    <_>
      -3.36202065e-04 -1.05678620e-04 6.77135467e-05 1.04649240e-04
      7.61052142e-05 9.53608687e-05 9.25082495e-05 9.35030548e-05
      1.01335514e-04 1.12832633e-04 1.05844490e-04 6.66222186e-05
      -5.04020863e-05 -6.47689958e-05 -5.78384679e-05 -7.60786425e-05
      -4.80349408e-05 -4.37497656e-05 -4.01646575e-05 -3.55747688e-05
      1.38162177e-05 1.08535241e-05 5.23701565e-05 6.74242983e-05
      4.97199908e-05 1.10414840e-04 2.17941270e-04 2.04470067e-04
      2.00885333e-04 1.37418887e-04 1.48466002e-04 8.18820117e-05
      -3.58704361e-04 -8.81046144e-05 9.75149960e-05 7.87808021e-05
      9.80983314e-05 9.21913888e-05 8.45707546e-05 8.18978442e-05
      9.85318038e-05 8.02388531e-05 7.89119658e-05 6.85264022e-05
      -7.87382669e-05 -8.56718689e-05 -5.01921313e-05 1.69064733e-05
      3.58493307e-05 3.32933778e-05 1.85225053e-05 2.52084646e-05
      -1.77353159e-05 4.11046749e-05 5.51654812e-05 4.04101338e-05
      7.73041247e-05 1.08685701e-04 1.60770753e-04 1.83466429e-04
      1.87756945e-04 1.71761101e-04 2.03234755e-04 9.50160902e-05
      -3.61957849e-04 -1.14650720e-04 6.55722615e-05 7.18815209e-05
      9.83714490e-05 9.85546576e-05 9.40576501e-05 7.43292621e-05
      5.56427622e-05 8.70022122e-05 8.34882521e-05 1.08303539e-05
      -9.46508953e-05 -3.82981743e-05 -3.36400299e-05 -4.19964890e-05
      -2.61320947e-05 2.08808933e-06 2.73557771e-06 2.72786492e-05
      -3.86852880e-05 -1.37849947e-05 6.76273776e-05 4.13939779e-05
      4.61690397e-05 1.37694718e-04 1.51021595e-04 1.89100800e-04
      1.94379623e-04 1.80998293e-04 2.29800149e-04 1.44384088e-04
      -3.85936059e-04 -1.27788589e-04 5.60509034e-05 7.35406211e-05
      4.98109366e-05 1.04941122e-04 1.07503110e-04 4.88502483e-05
      4.97163528e-05 4.64694676e-05 6.27565487e-06 -1.65042184e-05
      -7.56135050e-05 -3.70818889e-05 -5.12877632e-05 -8.44229799e-05
      -2.50678095e-05 -9.45392731e-06 -1.70822059e-05 -2.73539281e-05
      -7.68760656e-05 -8.61415538e-05 4.67548489e-05 8.18804765e-05
      9.84570579e-05 1.34002592e-04 1.17638432e-04 2.11463659e-04
      2.01175673e-04 1.74535613e-04 2.24639894e-04 9.17193902e-05
      -4.07365413e-04 -1.36146307e-04 5.00618917e-05 5.15260035e-05
      3.44387481e-05 9.46835426e-05 1.10385306e-04 5.43756032e-05
      6.15545578e-05 4.35257862e-05 8.64527522e-07 2.83550935e-06
      -5.04937889e-05 -3.72887407e-05 -6.39416321e-05 -7.06398059e-05
      -2.18515142e-05 -1.75001005e-05 -3.85534713e-06 -2.32771472e-05
      -1.07554813e-04 -1.24978658e-04 1.46826858e-06 7.43141936e-05
      1.04085309e-04 2.12807601e-04 9.73616334e-05 1.66269790e-04
      2.13876789e-04 2.15412234e-04 2.44358322e-04 1.17025280e-04
      -3.60968232e-04 -6.79964724e-05 9.63965795e-05 6.35332399e-05
      8.33604499e-05 1.15304967e-04 1.26793631e-04 6.98219155e-05
      8.28938282e-05 5.43715396e-05 2.66361803e-05 -1.63992063e-05
      -5.84803493e-05 -4.18967466e-05 -6.67949280e-05 -6.20716091e-05
      -1.22281181e-05 -4.12961454e-05 -3.01155615e-05 -2.90697317e-05
      -1.22500584e-04 -1.00789228e-04 -4.90205412e-06 8.24912058e-05
      1.12952301e-04 2.12032697e-04 2.30170248e-04 1.63512654e-04
      1.44658145e-04 1.25279083e-04 2.13234409e-04 6.20797000e-05
      -2.06930970e-04 4.26825973e-05 1.92070089e-04 1.64313984e-04
      1.75127483e-04 2.04641634e-04 2.12202416e-04 1.53470944e-04
      1.80405346e-04 4.90515486e-05 1.51631803e-05 -6.89356466e-06
      -2.31545710e-05 -5.26539679e-06 -3.07341761e-05 -6.46071057e-05
      -7.45799980e-06 -4.37846938e-05 -3.84605810e-05 -6.02858490e-05
      -1.37116076e-04 -1.10783127e-04 -3.91494505e-05 7.47777231e-05
      1.57687828e-04 2.26011107e-04 2.27695084e-04 1.78698363e-04
      4.93158295e-05 8.61661363e-07 4.52422464e-05 -7.50789186e-05
      -1.40639298e-04 -6.73210452e-05 1.44443629e-05 1.21271056e-04
      9.05728521e-05 1.07975713e-04 9.85990046e-05 1.41169585e-04
      1.02086960e-04 6.20953288e-05 2.13458934e-05 3.29274517e-05
      2.86221875e-05 4.64687182e-05 2.71324261e-05 1.27585045e-05
      3.13736382e-05 -1.39718422e-05 -1.64756111e-05 -1.03562401e-04
      -1.35130642e-04 -6.85306004e-05 -3.50057853e-05 9.86541272e-05
      2.21833150e-04 1.92526219e-04 1.21012330e-04 1.28325468e-04
      -3.69369118e-05 -7.16056320e-06 7.44971840e-05 -6.66258711e-05
      -1.56339156e-04 -2.19931811e-04 -1.17724660e-04 1.10223154e-04
      7.01101526e-05 8.27864715e-05 1.14431990e-04 1.79113398e-04
      6.62587190e-05 7.04960767e-05 4.60243282e-05 4.42552373e-05
      5.49117940e-05 7.57920061e-05 4.50456755e-05 8.30362696e-05
      7.58354799e-05 3.83146908e-05 -9.52411137e-05 -1.09795685e-04
      -8.79598083e-05 -5.06028882e-05 -8.21073627e-06 1.29291308e-04
      1.94214372e-04 2.13694962e-04 9.53664276e-05 9.01486492e-05
      1.14134113e-04 1.26448635e-04 1.97690853e-04 4.32402703e-05
      -2.14542553e-04 -2.44213094e-04 -1.27908308e-04 1.13994902e-04
      7.41293843e-05 9.72802518e-05 1.69847044e-04 1.00286212e-04
      8.00501148e-05 7.75948211e-05 6.90306333e-05 9.39154997e-05
      8.30897916e-05 1.14607225e-04 1.05314175e-04 4.52404456e-05
      4.20888864e-05 2.24189807e-05 -4.89510639e-05 -1.07699576e-04
      -9.20313105e-05 -1.01164933e-05 7.33253764e-05 1.03233571e-04
      1.88905295e-04 2.29775527e-04 9.91634806e-05 9.04074768e-05
      7.86675737e-05 1.02846134e-04 1.25136663e-04 6.68428129e-06
      -3.40761093e-04 -2.55145540e-04 -1.13352784e-04 1.23626814e-04
      7.09741798e-05 7.83696159e-05 2.15694134e-04 6.25553148e-05
      6.90125380e-05 1.00452293e-04 6.58815625e-05 8.43494563e-05
      9.08199218e-05 4.77653048e-05 5.22487462e-05 8.63628702e-06
      5.56557352e-05 1.55687139e-05 -5.60337576e-05 -8.83908433e-05
      -1.88213853e-05 7.64760625e-05 1.19757453e-04 6.78505676e-05
      2.13381369e-04 1.98221707e-04 5.37267333e-05 7.55488654e-05
      8.60877699e-05 1.76461515e-04 1.34479487e-04 -1.11936766e-04
      -3.45354842e-04 -1.80825911e-04 9.96548806e-06 2.09471938e-04
      1.63534743e-04 1.59681076e-04 1.20583747e-04 5.34201499e-05
      8.97958453e-05 1.12082766e-04 8.44003880e-05 1.04581508e-04
      1.01043865e-04 1.91990239e-05 4.15678951e-05 5.72884237e-05
      4.63504002e-05 8.95572375e-05 -3.42733938e-06 -6.99783122e-05
      -8.85602203e-05 -5.84337431e-05 -1.91150430e-05 6.54234464e-05
      2.01820119e-04 1.73890890e-04 1.10351008e-04 1.83078213e-04
      1.95298853e-04 2.15985114e-04 1.72517670e-04 -1.54573951e-04
      -4.64250566e-04 -2.41771442e-04 -2.23307834e-05 2.19091671e-04
      1.73328794e-04 1.54575697e-04 1.09064124e-04 8.34339735e-05
      9.89301116e-05 1.12695743e-04 1.00429839e-04 1.00231751e-04
      1.02558151e-04 3.11569602e-05 6.65443804e-05 1.52132689e-05
      2.82697554e-04 8.85894915e-05 -3.26060108e-05 -8.32586375e-05
      -7.36240836e-05 -3.53462492e-05 -3.06535621e-05 1.99049991e-05
      1.21674930e-04 1.79143011e-04 1.72463726e-04 2.05544231e-04
      2.04796102e-04 2.18298344e-04 2.21431561e-04 -1.35020993e-04
      -7.26834929e-04 -3.54022603e-04 -9.53888011e-05 1.41509052e-04
      1.40766613e-04 9.30119350e-05 1.06753243e-04 1.21306817e-04
      1.14527378e-04 1.08539760e-04 1.05491286e-04 1.18280535e-04
      1.04082013e-04 2.84532434e-05 2.12103278e-05 -1.30754095e-04
      -8.13368169e-05 -3.71132919e-05 -1.76019566e-05 -9.80983896e-05
      -8.93561592e-05 -5.83269684e-05 -7.10202403e-06 4.32015404e-05
      8.25856914e-05 1.83359734e-04 1.91403931e-04 1.72007654e-04
      1.64273937e-04 1.97697882e-04 2.91391741e-04 -1.65433361e-04
      -8.78744118e-04 -3.04805755e-04 -6.57971395e-06 1.96228721e-04
      1.75265421e-04 8.82668173e-05 1.11162866e-04 1.22919504e-04
      1.02976439e-04 9.62056802e-05 9.13925542e-05 9.17151046e-05
      5.32508129e-05 -1.65300444e-05 -4.38320640e-05 -3.89162102e-04
      -3.42813379e-04 -6.70731315e-05 -3.51321273e-06 -7.62472919e-05
      -7.75775698e-05 -2.59540866e-05 -1.29954415e-05 1.94669865e-05
      4.67377467e-05 1.41959667e-04 1.72193002e-04 1.72310683e-04
      1.84973003e-04 2.03239615e-04 3.17439612e-04 -2.53897859e-04
      -1.07576593e-03 -4.04041493e-04 -1.11487992e-04 9.57871525e-05
      1.60690630e-04 8.15292078e-05 1.06669897e-04 1.19822114e-04
      1.01238067e-04 9.98679461e-05 8.89935764e-05 1.02394144e-04
      3.49112706e-05 4.08930173e-05 1.42897325e-05 -5.31064754e-04
      -4.15137183e-04 -4.43566096e-05 4.42071578e-05 4.66331549e-05
      -6.84285624e-05 -3.97036056e-05 1.88654285e-05 1.96021047e-05
      3.17157537e-05 1.03585691e-04 1.65857462e-04 2.05835924e-04
      1.59622505e-04 1.63762888e-04 2.95652571e-04 -3.05202586e-04
      -1.08503667e-03 -4.00514022e-04 -8.32723090e-05 9.18565347e-05
      1.00119280e-04 8.60320870e-05 1.22465150e-04 1.21331024e-04
      1.02314021e-04 9.28109876e-05 9.42081460e-05 9.10701128e-05
      5.96104546e-05 3.19900864e-05 -1.16435322e-05 -5.90059382e-04
      -3.85449704e-04 -5.23905728e-05 5.13584491e-05 8.45876784e-05
      -1.68274528e-05 -3.95249890e-06 2.28392837e-05 1.70245912e-05
      4.26469978e-06 9.16271019e-05 1.80394214e-04 1.68769315e-04
      1.60184252e-04 1.72655797e-04 2.53049831e-04 -2.41560294e-04
      -1.06215721e-03 -4.80280985e-04 -5.02278381e-05 1.66186364e-04
      8.31480866e-05 9.58551173e-05 1.04967505e-04 1.23633887e-04
      1.16760035e-04 9.40556638e-05 1.00272795e-04 9.27135261e-05
      6.23647575e-05 3.23120512e-05 -2.42972455e-05 -4.39367082e-04
      -4.21268021e-04 -1.01298911e-05 7.02328980e-05 5.01591676e-05
      1.04210158e-05 -3.74907213e-05 -1.07978458e-05 7.26525968e-06
      3.70055532e-05 1.17666736e-04 1.69901308e-04 1.80915595e-04
      1.50927401e-04 1.74177811e-04 2.35128275e-04 -2.03674848e-04
      -1.03929499e-03 -5.32051199e-04 3.53144933e-05 2.18626694e-04
      9.43695632e-05 8.80556327e-05 1.14986920e-04 1.33168025e-04
      1.02864513e-04 8.70923905e-05 1.00927362e-04 8.30742574e-05
      6.82531900e-05 4.21346667e-05 -8.25830102e-06 -3.37500358e-04
      -5.33490907e-04 -2.89340278e-05 4.93449188e-05 6.62860039e-05
      -3.56082419e-05 -5.72525460e-05 -5.91677890e-05 1.35495084e-05
      1.19378171e-07 1.32315341e-04 1.66647456e-04 1.50716660e-04
      2.23436455e-05 2.35172683e-05 5.51402991e-05 -2.83331115e-04
      -8.77709768e-04 -4.33573005e-04 1.77688329e-04 2.22533126e-04
      9.46197179e-05 9.44894782e-05 1.09926557e-04 1.21212332e-04
      1.07279440e-04 8.99576262e-05 1.12340262e-04 9.79400284e-05
      1.07400447e-04 7.11348039e-05 4.04786988e-05 -3.25411209e-04
      -6.45860157e-04 -2.16191947e-05 4.39605246e-05 6.65903353e-05
      -4.88092955e-05 -6.42253071e-05 -6.63638275e-05 -4.49198087e-05
      -2.48425058e-05 1.57026967e-04 1.68849103e-04 1.66026191e-04
      -9.56384952e-07 1.62870674e-06 2.02509955e-06 -2.58184213e-04
      -6.51597860e-04 -3.84337152e-04 2.36622422e-04 2.49529898e-04
      2.04669166e-04 2.16125918e-04 1.72918561e-04 1.08442793e-04
      9.82793426e-05 7.87623940e-05 1.12468893e-04 1.01513913e-04
      9.22302497e-05 8.01366987e-05 6.06087233e-05 -3.43371095e-04
      -7.78829912e-04 8.10438796e-05 1.04305749e-04 6.40509970e-05
      -7.19997552e-05 -7.66981466e-05 -8.59728461e-05 -7.13468471e-05
      -7.94031621e-06 1.60436539e-04 1.54424619e-04 1.68943283e-04
      6.75433284e-06 1.26331715e-05 -1.13171373e-05 -2.52225960e-04
      -5.03517687e-04 -3.06058908e-04 2.54647020e-04 2.75193772e-04
      2.35638203e-04 1.77808310e-04 1.41511395e-04 9.98221512e-05
      1.17930627e-04 9.74861978e-05 1.05285850e-04 1.08545653e-04
      8.61001899e-05 8.69845026e-05 5.53718310e-05 -3.43528751e-04
      -8.74784309e-04 8.11424034e-05 1.24825834e-04 5.01212810e-07
      -4.30886794e-05 -8.12217040e-05 -7.90045669e-05 -5.27416450e-05
      -4.14410260e-06 1.45907208e-04 1.60242926e-04 1.39622643e-04
      1.54233458e-05 -5.35342133e-06 -2.56547683e-05 -2.17478577e-04
      -6.05901121e-04 -3.82117811e-04 5.98785227e-05 2.73174228e-04
      -9.93047215e-05 4.76347850e-05 -6.50746224e-05 -3.45094923e-05
      -3.89606757e-05 9.27883739e-05 9.55024516e-05 1.04417348e-04
      9.06514615e-05 8.97698337e-05 3.94364215e-05 -3.17496626e-04
      -8.47690913e-04 -1.05515101e-04 2.12781492e-06 -3.47265013e-04
      -3.77332733e-04 -2.40505993e-04 -6.39903592e-05 -8.85715635e-05
      2.85184924e-05 -9.30232363e-06 5.58636202e-05 -1.94245862e-04
      -2.83455447e-04 -1.75489055e-04 -3.18089551e-05 -1.97430214e-04
      -2.85098969e-04 -3.07617069e-04 4.65594967e-05 1.40206452e-04
      1.04845523e-04 9.46502842e-05 -9.23086263e-05 1.17076823e-04
      -5.03742413e-05 -6.49477297e-05 7.03117184e-05 6.86571002e-05
      -4.62420467e-05 5.76347884e-05 5.11913968e-05 -3.73843097e-04
      -9.01329797e-04 -1.70612897e-04 -1.02470884e-04 -3.03220986e-05
      -2.95368052e-04 -3.34076321e-04 -1.15786126e-04 -2.21842725e-04
      -7.99745176e-05 1.79444542e-05 1.55150527e-04 -1.72767206e-04
      1.58047915e-04 -9.37057339e-05 -1.22092446e-04 -2.13325897e-04
      -5.36839434e-05 1.40358343e-05 -1.91456973e-04 1.83148237e-04
      1.41841680e-04 -1.07190081e-05 1.17022108e-04 -1.50003645e-04
      1.16925657e-04 2.99592612e-05 -7.18701122e-05 -3.72481591e-05
      -1.82442425e-04 -6.63481387e-06 -2.50486250e-04 -3.40757193e-04
      -9.61707381e-04 -2.23843192e-04 -1.33528883e-04 -5.33189668e-05
      -2.40935799e-04 -1.73862005e-04 -1.54345485e-04 -9.58378296e-05
      -2.32418912e-04 3.01074251e-05 6.96785137e-05 -6.02824839e-05
      1.33198977e-04 9.70841575e-05 2.44640396e-05 8.02405193e-05
      -1.55685455e-04 -1.42368313e-04 -1.42703129e-05 7.97157918e-05
      1.03368533e-04 -1.36294739e-05 -7.67652164e-05 -1.09127350e-05
      -3.59293990e-05 -2.75920727e-04 -2.82886390e-06 -8.56585393e-05
      -2.49675184e-04 -7.36312213e-05 -1.58660132e-05 -3.44094791e-04
      -8.94263387e-04 -1.83702668e-05 5.50213044e-05 2.28717818e-05
      -6.99697703e-05 -4.30681757e-05 3.92945476e-05 4.77280228e-05
      6.56422490e-05 1.62209835e-04 1.62371856e-04 1.94720546e-04
      1.66091180e-04 1.71862572e-04 1.12934125e-04 6.49105641e-05
      -3.35673176e-05 4.30697401e-05 8.31030411e-05 7.53190106e-05
      7.14302805e-05 1.59650692e-04 8.91275777e-05 1.08524422e-04
      7.83411306e-05 -1.17516807e-04 -1.40495176e-04 -8.80972511e-05
      -1.11849658e-04 -1.09701235e-04 3.27566486e-05 -5.16210916e-04
      -8.76490085e-04 -1.34489354e-04 -8.13454171e-05 -5.32549857e-05
      5.40677538e-05 3.68090623e-05 4.10424072e-05 3.62509199e-05
      1.12592854e-04 1.38496718e-04 1.28128551e-04 1.50695370e-04
      1.18970740e-04 1.44464255e-04 1.06923086e-04 4.00452045e-05
      -9.46362416e-05 1.87852183e-05 6.08073169e-05 5.17989793e-05
      5.51430203e-05 1.71022213e-04 9.48455199e-05 1.17570278e-04
      1.19618599e-04 -1.19399549e-04 -1.06690924e-04 -4.69760307e-05
      -4.99115777e-05 -1.67902126e-05 -4.25493890e-05 -5.49270480e-04
      -5.83513698e-04 6.98464355e-05 9.86225587e-06 -1.62312499e-05
      2.38686662e-05 3.31433657e-05 8.24726726e-07 2.87315506e-05
      1.03657403e-04 1.21362405e-04 1.49281113e-04 1.69936931e-04
      1.35676921e-04 1.61219155e-04 1.28469692e-04 4.76149289e-05
      -6.86547137e-05 1.37632378e-05 3.84329287e-05 4.32794259e-05
      8.99237202e-05 1.40323973e-04 9.72920025e-05 1.07605803e-04
      8.50366923e-05 -1.38791336e-04 -1.12365989e-04 -1.05794425e-04
      -9.26250141e-05 -2.96201088e-05 5.55177758e-06 -1.71643434e-04
      -2.09031321e-04 3.42912062e-05 -6.01102947e-05 4.30019718e-05
      1.89491493e-05 6.76254695e-06 2.39641922e-05 2.82436795e-05
      1.44653706e-04 1.31946188e-04 1.63404547e-04 1.63927398e-04
      1.23447797e-04 1.36852046e-04 1.17718169e-04 6.34592507e-05
      3.12337652e-04 6.31616640e-05 7.03795013e-05 1.90798150e-04
      4.60211886e-04 4.03196085e-04 4.06795734e-04 6.14990277e-05
      1.35022099e-04 -8.17613618e-05 -9.13798649e-05 -6.02971195e-05
      -1.87690021e-05 -1.98572525e-06 3.19841311e-05 8.08439108e-06
      3.11810873e-04 2.96540849e-04 1.50795400e-04 1.47898987e-04
      1.30827786e-04 1.39577707e-04 5.03930005e-06 4.24129685e-05
      4.52611566e-04 2.88150943e-04 2.79040425e-04 5.59239939e-04
      5.45102463e-04 3.43353633e-04 9.97575989e-05 3.45206063e-05
      2.44292140e-04 3.78539611e-04 5.16532571e-04 7.27996376e-05
      4.30448912e-04 -1.19655624e-05 5.57183957e-05 7.83341529e-05
      4.81358380e-04 4.08317021e-04 2.85614980e-04 -5.50061668e-05
      -2.69377560e-05 -2.85624537e-05 -1.59608644e-05 4.19172109e-04
      1.10424990e-04 -5.12987790e-05 -1.31313827e-05 3.79615740e-05
      3.68756191e-05 3.52657953e-05 6.17394035e-05 8.34407547e-05
      5.20190399e-04 3.10355390e-05 1.15566254e-04 1.87420766e-04
      1.82147836e-04 2.16409040e-04 1.68016471e-04 1.06810599e-04
      -4.35558786e-06 7.84034273e-05 8.44060269e-05 1.93927353e-05
      4.42554447e-05 3.98460688e-05 8.26034593e-05 7.13578411e-05
      3.54208256e-04 4.21983044e-04 1.09358509e-04 2.03061281e-05
      -2.33860319e-05 -1.66711925e-05 -1.31271343e-04 -1.33562440e-04
      -8.34469101e-05 -2.55913146e-05 6.57150940e-06 1.19481920e-04
      5.30370380e-05 9.33455594e-05 1.40010161e-04 8.27879048e-05
      1.68340863e-04 4.27032364e-06 4.02212972e-05 6.31607109e-05
      -1.86494566e-04 1.11441252e-04 1.16406838e-04 7.20024764e-05</_>
    <_>
      -1.80703690e-04 -1.75775218e-04 5.66877752e-05 6.47047564e-05
      6.92285175e-05 6.72276146e-05 7.27106817e-05 7.26539511e-05
      7.44102217e-05 7.05030179e-05 6.56768461e-05 6.89228254e-05
      7.17563453e-05 2.61077003e-05 2.04667303e-05 1.76815702e-05
      3.64791013e-05 6.80821322e-05 6.89392473e-05 2.74633185e-05
      1.77642487e-05 1.75125188e-05 1.07112155e-05 3.63153958e-05
      5.50909135e-05 6.58545760e-05 9.99006297e-05 1.04434497e-04
      9.32170078e-05 7.67738093e-05 6.62401071e-05 4.80524104e-05
      -1.92495936e-04 -1.80285468e-04 5.35269464e-05 6.44222455e-05
      6.56319899e-05 7.12636902e-05 6.54374744e-05 6.99577940e-05
      7.46069927e-05 7.24822530e-05 5.95021520e-05 7.11157336e-05
      5.40521032e-05 3.09416391e-05 2.32747643e-05 2.46212639e-05
      2.67264259e-05 5.80902488e-05 2.25804724e-05 -2.99159346e-05
      -3.49024558e-05 -4.80825765e-05 -4.08544292e-05 9.61678234e-06
      6.74234470e-05 6.51499649e-05 8.20132336e-05 1.01704325e-04
      9.37283257e-05 9.01310414e-05 8.16888642e-05 4.23585370e-05
      -1.98001886e-04 -1.82124306e-04 5.43926581e-05 7.97220637e-05
      7.36392758e-05 6.49311842e-05 6.43231251e-05 7.65019358e-05
      7.03989353e-05 7.34965724e-05 6.27461850e-05 7.19088785e-05
      3.58985017e-05 2.99760359e-05 1.28994116e-05 2.80501936e-05
      4.14404785e-05 4.48585015e-05 -2.60971574e-05 -8.37191837e-05
      -9.28628797e-05 -9.24697379e-05 -8.37314001e-05 1.14980758e-05
      5.95074671e-05 6.79111181e-05 7.04608756e-05 1.00058627e-04
      9.97795723e-05 1.06607346e-04 9.32122130e-05 7.81689450e-05
      -2.10429280e-04 -1.76596965e-04 5.85497619e-05 7.12640176e-05
      7.16296563e-05 7.16602808e-05 7.30830216e-05 8.10123020e-05
      7.32395129e-05 7.42006741e-05 7.01085228e-05 6.18880440e-05
      3.32141753e-05 2.82727979e-05 6.40474173e-06 1.16850861e-05
      4.74831868e-05 -9.29793089e-07 -5.02255389e-05 -9.55581418e-05
      -1.04187500e-04 -8.08604382e-05 -8.72374876e-05 2.70815053e-05
      6.98493677e-05 6.20986975e-05 7.58216265e-05 1.09751600e-04
      1.05414350e-04 1.09071101e-04 1.08219407e-04 9.04587796e-05
      -2.05059769e-04 -1.69203180e-04 6.08882074e-05 7.16114810e-05
      7.49502578e-05 8.09703924e-05 8.14812520e-05 8.07089091e-05
      6.64866457e-05 6.13246229e-05 5.44845134e-05 4.27450286e-05
      -2.26758784e-05 1.18422258e-05 -5.14881947e-07 2.11952301e-05
      5.93038567e-05 -9.76283536e-06 -3.41835475e-05 -8.52534577e-05
      -6.89489825e-05 -6.88696673e-05 -8.11440186e-05 3.00267948e-05
      7.69389735e-05 8.26569376e-05 7.03303085e-05 7.79209149e-05
      9.68709937e-05 1.03162885e-04 1.09321518e-04 8.14347441e-05
      -1.96251218e-04 -1.55277623e-04 9.16815770e-06 6.10082934e-05
      -6.47332990e-06 2.64688297e-05 -1.69760970e-05 3.89256711e-05
      7.08946682e-05 7.92387364e-05 8.21707363e-05 4.34871909e-05
      4.46706472e-05 2.63363017e-05 3.55448901e-05 4.73803484e-05
      4.26133156e-05 -1.60792897e-05 -4.80253766e-05 -8.84125548e-05
      -7.18816445e-05 -7.99076588e-05 -7.38948947e-05 4.61439049e-05
      6.98009026e-05 7.01558820e-05 1.08741585e-06 7.97118537e-06
      -9.61145906e-06 -9.93973299e-06 5.83435258e-06 -2.66441057e-05
      -2.73674523e-04 -1.32990477e-04 1.03918661e-04 9.38720696e-05
      9.17395228e-05 8.79808213e-05 8.03838921e-05 8.25793031e-05
      8.34679231e-05 8.70433360e-05 7.24599231e-05 3.71686001e-05
      4.04159728e-05 2.31160539e-05 3.00509000e-05 6.17557744e-05
      5.57433077e-06 -4.50505140e-05 -1.33186084e-04 -1.44022881e-04
      -2.02037350e-04 -2.04107579e-04 -2.02692972e-04 -9.64777719e-05
      -4.64736295e-05 -4.07944208e-05 -1.26050281e-05 7.16267241e-05
      7.86411038e-05 8.27147451e-05 1.00646903e-04 7.22250479e-05
      -8.36519903e-05 -7.11058931e-07 1.70256142e-04 1.11391993e-04
      9.18041624e-05 9.41339094e-05 8.01955466e-05 8.77426064e-05
      8.20735149e-05 8.01146962e-05 3.07138580e-05 -1.20956856e-05
      -6.36963014e-05 -1.12532296e-04 -1.43044352e-04 -1.26709361e-04
      -1.56417300e-04 -1.92137537e-04 -1.81943469e-04 -2.12711369e-04
      -1.17546755e-04 -6.73453469e-05 -6.81455713e-05 5.76802049e-05
      8.92135213e-05 9.50961257e-05 8.67094641e-05 8.43386224e-05
      8.00508496e-05 9.21963147e-05 1.15283947e-04 6.81342353e-05
      -4.61755517e-05 5.96876998e-05 1.47705199e-04 1.38667179e-04
      4.36316896e-06 -3.90500645e-05 -4.87124016e-05 -8.56791157e-05
      -9.18845544e-05 -9.48062152e-05 -1.23380742e-04 -9.19080703e-05
      -9.75103903e-05 -6.20543506e-05 4.51793458e-05 2.06447112e-05
      -2.40161171e-05 -2.86260056e-05 -2.79200394e-05 -7.43082128e-05
      -7.21326214e-05 -5.63523099e-05 -6.14550372e-05 7.07559229e-05
      9.37637160e-05 9.34288910e-05 8.50529977e-05 9.20664097e-05
      9.02022584e-05 9.41406033e-05 -1.05267327e-05 -1.24627273e-04
      -3.01889377e-04 -1.24322512e-04 -6.22622974e-05 -3.59484657e-05
      -4.59480689e-05 -6.08993141e-05 -2.38677330e-05 6.18954873e-05
      8.12823564e-05 7.86425881e-05 4.70475607e-05 4.99175985e-05
      4.09209060e-05 3.53970536e-05 3.69607224e-05 6.76728789e-08
      -6.70927739e-06 -2.32224393e-05 -4.17636620e-05 -5.75751219e-05
      -6.67841814e-05 -5.38810709e-05 -5.49056422e-05 7.07006911e-05
      -3.82020735e-05 -7.37367372e-05 -9.31407340e-05 -1.07815518e-04
      -9.46640066e-05 -5.25996802e-05 -1.13471040e-04 -1.93473767e-04
      -3.18446109e-04 -3.80983038e-05 1.04874372e-04 1.26764047e-04
      9.34875497e-05 7.47477243e-05 7.04181220e-05 7.10715976e-05
      7.02509060e-05 5.89698939e-05 3.54073418e-05 3.80331658e-05
      3.43102874e-05 3.29461473e-05 1.33600361e-05 -1.63449804e-05
      -1.67084108e-05 -1.07787328e-05 -2.14773274e-04 -2.53446604e-04
      -2.80889275e-04 -2.63580383e-04 -2.29660698e-04 -7.04412232e-05
      -5.05820353e-05 2.40004010e-06 7.53097047e-05 7.82901989e-05
      8.23364244e-05 8.90767842e-05 3.27216658e-05 -1.62814933e-04
      -4.23702906e-04 -8.43668968e-05 1.49989486e-04 1.33754351e-04
      9.76741358e-05 7.30907341e-05 6.49828435e-05 7.88932448e-05
      8.04606243e-05 5.16752880e-05 4.15006980e-05 4.87248581e-05
      -1.59350529e-04 -1.77815920e-04 -1.93659624e-04 -2.01714254e-04
      -1.63298566e-04 -1.22313882e-04 -1.41501238e-04 -8.49335338e-05
      -7.92955252e-05 -6.73620380e-05 -6.91076857e-05 7.63985445e-05
      9.50616377e-05 8.32162987e-05 9.29017624e-05 7.80424671e-05
      7.73432257e-05 9.35736825e-05 1.21172634e-04 -1.88902617e-04
      -6.16967503e-04 -1.46863997e-04 2.10997721e-04 1.45573023e-04
      1.01866208e-04 8.21695139e-05 -1.36578979e-04 -1.16698728e-04
      -1.18028474e-04 -9.75982548e-05 -9.40638129e-05 -6.52294912e-05
      -2.42260630e-05 1.03602297e-05 -1.20748136e-05 -2.53888975e-05
      -4.04258662e-06 3.92628281e-05 -2.64148657e-05 -8.08726036e-05
      -7.89329279e-05 -7.22632612e-05 -6.89926528e-05 8.66457412e-05
      8.71440134e-05 7.88470716e-05 7.53849381e-05 7.89362530e-05
      7.54672219e-05 1.00972946e-04 1.76322603e-04 -1.72397675e-04
      -1.08312594e-03 -4.22169309e-04 5.59787186e-05 9.90984699e-06
      -4.28645399e-05 1.61920491e-06 7.09739179e-05 7.97705725e-05
      4.57605638e-05 4.33465939e-05 5.07093537e-05 3.32443160e-05
      1.25391591e-06 -1.43078137e-06 -3.22096239e-05 -2.07623525e-05
      3.00986721e-05 4.69685183e-05 -2.53634425e-05 -7.37392329e-05
      -7.91548737e-05 -7.10398817e-05 -5.87583127e-05 9.23032057e-05
      8.77968923e-05 8.54701575e-05 -1.00589328e-04 -8.65598267e-05
      -5.08141675e-05 -2.32729726e-05 8.67621784e-05 -1.79011709e-04
      -1.05713389e-03 -2.42815964e-04 1.99524628e-04 1.30616652e-04
      8.25102979e-05 8.87185743e-05 8.92064490e-05 5.76542770e-05
      4.15112445e-05 4.53656758e-05 4.08191991e-05 2.04825960e-06
      9.08288894e-06 -3.21679408e-06 -3.19844039e-05 1.54774680e-05
      5.45084331e-05 5.92258657e-05 -3.27766502e-05 -7.34202404e-05
      -2.38512672e-04 -2.05101489e-04 -1.80399205e-04 -1.78683567e-05
      5.17006338e-05 8.53672973e-05 9.23506086e-05 8.06544413e-05
      9.06702189e-05 1.01025253e-04 1.74992834e-04 -1.98802838e-04
      -1.14755961e-03 -1.36851901e-04 2.07798425e-04 1.33968540e-04
      8.64873437e-05 8.19999550e-05 8.31961661e-05 5.12424886e-05
      4.58872091e-05 4.71743733e-05 2.07220273e-05 -1.65261663e-05
      1.19707884e-05 -7.97878693e-06 -1.71035455e-04 -7.07745203e-05
      -4.84930133e-05 1.96891360e-05 -4.67179707e-05 -8.02111535e-05
      -7.86928431e-05 -7.31014079e-05 -5.83953370e-05 7.68602185e-05
      8.69004289e-05 8.86586204e-05 8.56269617e-05 7.73586216e-05
      8.82387903e-05 1.02968959e-04 1.59189149e-04 -1.91334359e-04
      -1.15163578e-03 -5.06584183e-05 1.98348062e-04 1.27418461e-04
      8.41831352e-05 7.32676999e-05 9.40761165e-05 4.45906226e-05
      -6.40382568e-05 -7.50710242e-05 -5.82949069e-05 -1.66055670e-05
      -2.49333225e-05 -3.78626137e-05 7.42382463e-06 4.57016722e-05
      6.49281064e-05 8.85964764e-05 -6.18282938e-05 -8.72685341e-05
      -7.71957930e-05 -8.12223298e-05 -5.76368548e-05 7.98706897e-05
      8.92575190e-05 9.39302699e-05 8.59708744e-05 8.45259856e-05
      8.67740964e-05 9.43280902e-05 1.54934663e-04 -1.23801452e-04
      -1.11860654e-03 -9.11798488e-05 1.07145243e-04 4.86935533e-05
      8.41353394e-05 7.20373864e-05 7.22393306e-05 4.12999143e-05
      3.53878531e-05 7.72430030e-06 -4.00426725e-05 -3.29705981e-05
      -4.90310085e-05 -5.37705237e-05 8.31906618e-06 1.55652197e-05
      5.69995100e-05 7.49396349e-05 -5.44945797e-05 -7.71788400e-05
      -7.35809444e-05 -7.86807796e-05 -5.60649896e-05 8.38753986e-05
      8.66733535e-05 8.71279262e-05 8.95019039e-05 8.38684355e-05
      6.28486887e-05 7.85434386e-05 1.22554382e-04 -2.04099546e-04
      -1.04630133e-03 -2.30821184e-04 1.95682747e-04 1.18159776e-04
      8.03941148e-05 7.08936714e-05 6.76386262e-05 5.82473767e-05
      2.01173625e-05 -1.11602403e-05 -3.93172631e-05 -2.99890144e-05
      -5.86650567e-05 -2.05566193e-05 -5.11203052e-06 1.10422443e-05
      5.28170094e-05 5.80706946e-05 -6.74870244e-05 -7.53295244e-05
      -6.81133606e-05 -7.51419648e-05 -7.25516074e-05 5.94643425e-05
      6.78689103e-05 7.86542223e-05 8.64780595e-05 7.84435324e-05
      8.94385303e-05 7.56945228e-05 1.04855673e-04 -2.21217459e-04
      -8.09424324e-04 -2.34675303e-04 2.02664072e-04 1.09590779e-04
      9.02848478e-05 7.64433571e-05 8.88318027e-05 3.25653418e-05
      -6.94997061e-06 -3.00368156e-05 -2.02893843e-05 -3.53747782e-05
      -3.34323704e-05 2.13709814e-06 -1.20246832e-05 3.58267280e-05
      5.38842505e-05 3.84045452e-05 -8.23065348e-05 -8.40299399e-05
      -7.89607002e-05 -8.11703285e-05 -7.84443764e-05 4.08425767e-05
      4.93242333e-05 5.31759360e-05 7.47680824e-05 7.87295066e-05
      8.02925642e-05 7.83174473e-05 7.70386832e-05 -2.26197939e-04
      -6.40911225e-04 -1.87804268e-04 2.08591184e-04 1.46636288e-04
      9.80012264e-05 8.26445757e-05 8.65994589e-05 8.60118325e-06
      -2.21809951e-05 -3.33188800e-05 -5.04456984e-05 -6.81274323e-05
      -3.73509029e-05 -5.90188893e-06 -7.75502940e-06 3.55792363e-05
      5.17873304e-05 3.28221249e-05 -6.16146426e-05 -7.77674941e-05
      -6.27469344e-05 -5.73128527e-05 -5.18307461e-05 4.18614873e-05
      4.30170512e-05 4.70351151e-05 6.62867897e-05 8.76189224e-05
      8.63309979e-05 8.73898680e-05 1.70052499e-05 -2.22905772e-04
      -4.54364199e-04 -1.72961998e-04 2.39596178e-04 2.10541839e-04
      1.26272527e-04 8.62472662e-05 7.83355135e-05 -2.64858154e-05
      -2.43299201e-05 -2.77713025e-05 -5.95004021e-05 -7.37819137e-05
      -4.50818370e-05 -4.53691209e-05 -2.38753073e-05 1.23083396e-06
      1.49107927e-05 1.09826024e-05 -5.60547960e-05 -8.05299351e-05
      -6.85588893e-05 -5.66461749e-05 -6.13563607e-05 8.24418476e-06
      4.53347911e-06 1.36686485e-05 4.91344690e-05 8.46399562e-05
      8.02714057e-05 7.55474466e-05 -6.64814143e-05 -2.44600407e-04
      -3.94578616e-04 -1.65878926e-04 2.45816307e-04 2.29196186e-04
      1.66759623e-04 1.16164010e-04 6.21309300e-05 -2.36620290e-05
      -3.39145736e-05 -3.89036832e-05 -7.95285450e-05 -6.62704551e-05
      -7.81076087e-05 -6.66253327e-05 -5.30936268e-05 -2.83094796e-05
      -2.02823194e-05 -1.50847145e-05 -6.27501358e-05 -7.47113518e-05
      -7.12041146e-05 -6.83378530e-05 -7.55606670e-05 -2.42973747e-05
      -2.67285759e-05 -1.77209531e-05 3.46598135e-05 7.73730353e-05
      7.22241602e-05 6.61405575e-05 -8.42006048e-05 -2.34453546e-04
      -3.44068569e-04 -1.36041141e-04 1.32846253e-04 2.21379247e-04
      1.81156604e-04 1.33474139e-04 7.61042538e-05 -7.37203572e-06
      -2.80061304e-05 -6.28156631e-05 -6.90216621e-05 -7.04031845e-05
      -7.72472849e-05 -5.40257970e-05 -3.37108759e-05 -2.04867847e-05
      -1.07937267e-05 -1.60324107e-05 -6.65144980e-05 -7.54298744e-05
      -6.72925671e-05 -7.61784322e-05 -7.42030170e-05 -2.52927312e-05
      -1.56487440e-05 -9.53579638e-06 4.01626457e-05 8.75814439e-05
      8.33729719e-05 7.49757091e-05 -6.94516420e-05 -1.94181484e-04
      -2.22579649e-04 -4.97812871e-05 1.06305473e-04 1.79219365e-04
      1.48452571e-04 1.08298882e-04 8.57173727e-05 -1.89688435e-05
      -3.13428245e-05 -6.41491642e-05 -8.06587923e-05 -7.89641126e-05
      -7.94961888e-05 -3.85525818e-05 -2.51656602e-05 -2.40038062e-05
      -1.54368481e-05 -1.30122153e-05 -7.32812041e-05 -7.18182782e-05
      -6.47694178e-05 -7.37569644e-05 -6.59079815e-05 -1.77025086e-05
      -1.03723432e-05 4.60241063e-06 2.27112159e-05 7.79574329e-05
      8.34555976e-05 5.16282525e-05 -5.10355130e-05 -1.07369953e-04
      -1.95999237e-04 -4.76961068e-05 1.08641208e-04 1.16292118e-04
      9.53695999e-05 7.41246185e-05 6.70661975e-05 2.10686885e-05
      -1.57403738e-05 -2.95717946e-05 -4.79661758e-05 -4.47376988e-05
      -1.80184179e-05 -5.21036782e-06 -4.37907693e-06 -3.99490773e-06
      6.69135670e-06 7.85355678e-06 -6.78902434e-05 -6.93236943e-05
      -6.80870726e-05 -7.30698011e-05 -6.59557700e-05 -2.29360944e-06
      1.14281138e-05 1.64425073e-05 3.89295274e-05 6.81677848e-05
      6.27557311e-05 5.18715497e-05 -6.40321832e-06 -7.45359866e-05
      -2.65480427e-04 -8.47032570e-05 7.00516030e-05 7.96050444e-05
      8.06851531e-05 7.11273824e-05 7.15997885e-05 7.68980535e-05
      -1.81406795e-05 3.78255754e-05 4.22847224e-05 4.73437758e-05
      8.25563111e-05 8.36548497e-05 7.94728112e-05 7.83342330e-05
      -1.03911530e-04 -1.08306258e-05 -1.61520977e-04 -1.33633104e-04
      -1.47711660e-04 -1.59407675e-04 -5.95369384e-05 2.06403965e-05
      -1.54395850e-04 -7.94360749e-05 -1.67229973e-05 -1.50656066e-04
      -1.71653752e-04 -6.20983701e-05 3.52257593e-05 -4.58048489e-05
      -2.58803659e-04 -4.21869590e-05 6.40658327e-05 7.79034162e-05
      6.83336621e-05 7.10568638e-05 7.14607158e-05 5.58421780e-05
      3.05652720e-05 3.68267902e-05 4.15399409e-05 5.24019233e-05
      7.56162699e-05 7.39284660e-05 6.60600344e-05 6.25587491e-05
      7.01321042e-05 5.55232837e-05 -4.99472117e-05 -7.07798972e-05
      -8.14765808e-05 -8.18343979e-05 -6.58001736e-05 1.23086793e-05
      3.01124255e-05 2.58877681e-05 6.26799811e-05 7.14802445e-05
      6.47839770e-05 5.73477373e-05 4.08861051e-05 -5.41397312e-05
      -3.09183961e-04 -1.40074762e-05 6.21363870e-05 6.69982328e-05
      6.73902323e-05 6.33450400e-05 6.75690826e-05 3.28649730e-05
      1.66376540e-05 2.57185002e-05 2.39356104e-05 3.08927083e-05
      3.46056877e-05 3.21976840e-05 2.73234455e-05 2.22558901e-05
      1.04269020e-05 2.29553170e-05 -5.79322914e-05 -7.39405514e-05
      -9.02759348e-05 -8.08085315e-05 -6.50537841e-05 1.33654612e-05
      1.48484614e-05 2.27628407e-05 5.96575337e-05 3.11781769e-05
      2.03307354e-05 1.81244941e-05 -1.05258769e-05 -1.10728062e-04
      -4.08784763e-05 -3.61686471e-05 5.07272598e-05 5.86026581e-05
      2.43256538e-04 2.40285866e-04 2.40809910e-04 -1.45466247e-05
      3.10459436e-05 3.08877156e-06 1.29668324e-05 2.28735080e-05
      1.39313252e-05 1.67512007e-05 1.31955649e-05 1.00784719e-05
      1.95903616e-04 2.30849721e-04 1.14900256e-04 3.20692598e-05
      1.41682685e-05 1.92494063e-05 -5.66779454e-05 1.28025704e-05
      2.26345932e-04 1.65095727e-04 1.52394423e-04 2.95978796e-04
      3.03021428e-04 1.58860785e-04 9.45463228e-07 -5.55411243e-05
      -6.94770497e-05 1.74519635e-04 2.89955176e-04 8.45443719e-06
      2.88451876e-04 1.07150515e-06 -6.11820838e-07 -3.75624295e-05
      2.55294493e-04 2.94373167e-04 3.05358379e-04 2.39637720e-05
      2.07203993e-05 2.18754740e-05 2.12194609e-05 2.95426056e-04
      7.80647242e-05 1.23859236e-05 -5.16584514e-05 -6.24361783e-05
      -4.87405050e-05 -3.21026273e-05 -5.72063345e-06 5.12077422e-05
      3.26234294e-04 7.01321260e-05 7.77621826e-05 3.39248581e-05
      2.32605489e-05 2.34743875e-05 8.44016540e-06 -2.25775057e-05
      -2.80530105e-04 -5.90318232e-05 -2.96715348e-06 1.23077086e-06
      7.14934549e-06 -1.46088007e-06 7.47191871e-06 -3.19200954e-05
      1.94485692e-04 3.20212508e-04 2.39211367e-04 1.56778158e-04
      1.62153068e-04 1.57509858e-04 5.67727620e-05 5.75001577e-05
      8.76870108e-05 8.60211294e-05 2.76184237e-05 -6.34496382e-06
      -1.19446049e-05 -2.25461281e-05 1.24033631e-05 7.82830612e-05
      7.91072744e-05 8.91498421e-05 8.73387689e-05 4.21966070e-05
      3.80478195e-05 4.00494609e-05 2.72873986e-05 -1.27567309e-05</_>
    <_>
      -3.19497085e-05 7.14644091e-04 1.67216640e-03 1.24215335e-03
      2.03808630e-03 -4.09587316e-04 -9.05534835e-05 -6.43442501e-04
      -1.40799058e-03 -1.20600429e-03 -1.09011693e-04 2.83428264e-04
      -1.42623996e-03 -1.78271905e-03 -1.99847433e-04 -8.87513743e-04
      1.91124302e-04 -2.31440505e-03 -9.92528629e-04 -2.13142461e-03
      -2.32257880e-04 -1.27560087e-03 7.89065161e-05 -1.11458685e-04
      -5.49073215e-04 4.12342080e-04 1.52673759e-03 2.76643736e-03
      1.92145270e-03 1.28185609e-03 4.70756549e-06 6.44717540e-04
      9.67326690e-04 3.92381742e-04 1.76690100e-03 5.54625294e-04
      1.28652994e-03 -4.73452237e-04 8.34892155e-04 3.70847585e-04
      -5.03435467e-06 -5.26221178e-04 -4.96785156e-04 -6.47442357e-05
      -1.51638151e-03 -1.72305328e-03 -9.74667666e-04 -1.39717665e-03
      9.42526269e-04 -6.20543316e-04 4.71207080e-04 -1.01135345e-03
      7.58573704e-04 -1.46421860e-03 -6.52918534e-04 -1.02921913e-03
      1.29524455e-03 1.26068317e-03 4.80295392e-04 2.93844356e-03
      2.31927703e-03 3.46655096e-03 2.15947186e-03 8.01629736e-04
      4.10313631e-04 8.52061494e-04 1.12736411e-03 -3.08933348e-04
      7.67695426e-04 -1.43670640e-03 7.27556820e-04 9.44051833e-04
      6.57332828e-04 -1.67378254e-04 -9.37047065e-04 -4.61992691e-04
      -1.83401164e-03 -1.83895824e-03 -3.49539419e-04 -1.99628179e-03
      3.00216925e-04 -1.24161714e-03 -7.87195924e-04 -7.95857224e-04
      1.14580849e-03 -1.29486457e-03 2.71100071e-05 -4.78994654e-04
      8.35672719e-04 1.42754009e-03 1.13768503e-04 3.40275001e-03
      2.31084926e-03 3.65906116e-03 2.71551800e-03 3.07004526e-03
      -1.08734868e-03 -9.52072092e-04 7.09079148e-04 -3.01299384e-04
      2.08715835e-04 -1.46215572e-03 6.90591347e-04 4.25439270e-04
      -8.59331514e-04 -1.27801206e-03 -1.25944114e-03 -5.19104244e-04
      -1.93509506e-03 -1.37331663e-03 -1.29407752e-04 -1.15343742e-03
      6.37706602e-04 -1.44072168e-03 -1.88813743e-03 -1.59829133e-03
      1.06276968e-03 -1.58490101e-03 -1.79455077e-04 4.95851156e-04
      -1.39249853e-04 1.22439233e-04 -9.37817676e-04 3.72161134e-03
      2.81514670e-03 3.61909368e-03 1.49495585e-03 2.13167560e-03
      -2.15992564e-03 -1.40439579e-03 7.60590483e-04 -1.93688757e-04
      1.16312550e-03 -5.80879685e-04 3.25863657e-04 7.26385260e-05
      -1.74009870e-03 -1.59202178e-03 -1.22932810e-03 -2.43442992e-04
      -1.34288904e-03 -1.82390644e-03 -9.73014161e-04 -2.09316844e-03
      8.65091046e-04 -1.30929146e-03 -1.59833580e-03 -1.92427821e-03
      -4.81560528e-05 -2.58981180e-03 -1.89967442e-03 -4.23391815e-04
      -1.27510459e-03 3.50975723e-04 -2.02818075e-03 6.79805235e-04
      1.48615055e-03 2.05384567e-03 -6.21233601e-04 1.74689034e-04
      -1.45097787e-03 -5.19461581e-04 1.26658962e-03 8.71291792e-04
      1.89955218e-03 -6.03567518e-04 2.11267907e-04 -3.84338673e-05
      -7.32421468e-05 -4.69383551e-04 -2.82534747e-04 3.29472750e-05
      -9.91200330e-04 -2.49930657e-03 -1.52364234e-03 -2.88676075e-03
      1.45332573e-03 -1.27886003e-03 -1.78397226e-03 -2.14933627e-03
      4.11235960e-04 -3.25907883e-03 -1.16925035e-03 8.73707584e-04
      1.90940883e-03 1.65934558e-03 -2.21027236e-04 8.52508587e-04
      -6.82143786e-04 9.41505772e-04 -1.64830490e-05 7.06741877e-04
      -5.36142383e-04 -3.79772071e-04 1.68800959e-03 7.72275787e-04
      1.84579415e-03 -8.55763283e-05 1.33046764e-03 3.81813647e-04
      1.50260181e-04 1.22117563e-04 -2.16724467e-04 7.35312235e-04
      -5.43352216e-04 -1.39320688e-03 -1.29579008e-03 -2.83199595e-03
      9.62819104e-06 -2.86689401e-03 -1.68509770e-03 -1.78364024e-03
      4.71634441e-04 -2.60464544e-03 -5.24593983e-04 2.51324591e-03
      2.91227130e-03 3.71377193e-03 9.60241421e-04 1.07712578e-03
      4.56660171e-04 3.55349126e-04 -1.76542345e-03 -6.41638006e-04
      8.03734001e-04 8.49228352e-04 1.79586769e-03 7.79756927e-04
      2.32157274e-03 4.00144985e-04 2.38315808e-03 2.00771936e-03
      5.39820816e-04 1.82633506e-04 -6.70738693e-04 8.02553957e-04
      1.26012295e-04 -9.04894434e-04 4.36688424e-05 -2.05337815e-03
      -2.20958445e-05 -1.92865450e-03 -6.09907787e-04 -6.21806481e-04
      5.21457929e-04 -3.38917365e-03 -1.34776090e-03 1.25373271e-03
      1.25653285e-03 2.22735829e-03 -3.79488229e-05 1.80954451e-03
      2.13506530e-04 1.41393370e-03 -1.55003031e-03 -2.05938020e-04
      6.73069211e-04 -1.11875741e-03 6.62448525e-04 1.28876366e-06
      3.57197656e-04 -4.96299530e-04 -6.47506502e-04 1.72977289e-03
      -6.73859555e-04 2.16649775e-03 -1.42301971e-04 5.93422214e-04
      -3.13567667e-04 1.69339194e-03 -5.68112999e-04 -3.66290224e-05
      1.47837703e-03 1.32391276e-03 6.97096868e-04 4.20953060e-04
      1.99705100e-04 -8.33769795e-04 -6.48084329e-04 -3.84052291e-05
      1.00122590e-03 1.12276943e-03 -6.70335954e-04 1.33928668e-03
      -1.28093350e-03 -6.19448721e-04 -1.48793031e-03 -3.67191620e-04
      -1.20167715e-05 -1.46304118e-03 9.95197333e-04 -1.63308185e-04
      2.86727765e-04 -4.48934326e-04 -1.45994622e-04 1.07062922e-03
      -1.24094522e-05 1.63428555e-03 6.75237330e-04 9.31669201e-04
      3.84775340e-05 1.84206036e-03 4.50213265e-04 7.13896647e-04
      4.66078345e-04 2.03381278e-04 -6.09433046e-04 -1.24760391e-03
      -1.48571387e-03 -2.06646440e-03 -1.91924360e-03 -9.76300798e-04
      -3.99879762e-04 4.30763466e-05 -1.21430180e-03 1.34128064e-03
      -5.50486555e-04 3.08718765e-04 2.87402276e-04 1.93298061e-03
      -1.22549874e-03 -2.42351927e-03 8.41234869e-05 -3.49159127e-05
      7.54163484e-04 5.65703551e-04 7.42306293e-04 1.01319293e-03
      4.08302905e-04 1.97059009e-03 1.23497419e-04 1.60150754e-03
      2.11703446e-04 5.71156386e-04 -7.96149136e-04 9.27976449e-04
      2.09064200e-03 9.26523760e-04 -7.76981411e-04 -8.76822916e-04
      -7.63559365e-04 -4.45495418e-04 -1.06415409e-03 2.43533970e-04
      -1.02444133e-03 -6.31041243e-04 -1.39364554e-03 7.78708491e-04
      -1.59734651e-03 -1.73713765e-04 -7.69067439e-04 1.36276416e-03
      -1.53668073e-03 -1.97783974e-03 7.03537429e-04 -5.05895041e-05
      1.84846786e-03 1.67040306e-03 8.07018310e-04 3.48062720e-04
      1.82668286e-04 1.02225621e-03 6.90512126e-04 2.47355760e-03
      6.50443602e-04 8.32141319e-04 -1.21710496e-03 1.13687536e-03
      2.30561636e-04 -8.11822538e-04 -1.86455844e-03 -2.03824299e-03
      -1.43802888e-03 -2.08272343e-03 -2.00323900e-03 -1.35876483e-03
      -4.35577444e-04 2.37815548e-04 -5.39163069e-04 1.32402091e-03
      -2.00149091e-03 -5.54891070e-04 -1.20241614e-03 -1.00625446e-03
      -6.65566826e-04 -1.14905450e-03 1.23091834e-03 4.81991767e-04
      1.51591911e-03 8.53670936e-04 -8.39970744e-05 -4.34918707e-04
      8.75069352e-04 1.68357836e-03 1.10751775e-03 4.04820358e-03
      2.39867088e-03 1.81708217e-03 -2.04501644e-04 2.12369859e-03
      -1.66332757e-03 -2.11543264e-03 -3.17876739e-03 -2.99848313e-03
      -1.46666949e-03 -2.08346406e-03 -2.42909510e-03 -2.33436818e-03
      -3.88949265e-04 7.90118138e-05 -1.69830630e-03 9.60503123e-04
      -1.30051759e-03 5.56855986e-04 -8.71112745e-04 -4.20458819e-04
      -6.55374082e-04 -1.12009153e-03 1.99671066e-03 3.35760589e-04
      1.68341619e-03 1.06245838e-03 5.54486702e-04 -2.87295668e-04
      1.25481840e-03 2.86380411e-03 1.97423040e-03 4.02435567e-03
      2.24032183e-03 2.40038498e-03 2.68695847e-04 8.61194625e-04
      -1.83785494e-04 -1.15151796e-03 -1.84558739e-03 -1.16206135e-03
      -3.11062868e-05 -1.12558468e-04 -1.03738462e-03 -1.95347078e-04
      3.38441314e-04 7.45635189e-04 -6.22567371e-04 8.63299472e-04
      -2.50215875e-04 8.57926439e-04 -7.34040979e-04 -1.43024023e-03
      -2.02197139e-03 -1.37153617e-03 1.60534319e-03 -2.79305765e-04
      1.13289116e-03 8.23675015e-04 1.26291951e-03 3.62410006e-04
      1.34576869e-03 3.12753743e-03 1.88983313e-03 2.90702493e-03
      1.66026468e-03 2.89813825e-03 5.02425421e-04 2.27444994e-04
      1.15351722e-04 -7.61291594e-04 -2.10507214e-03 -2.55424832e-03
      -1.07693963e-03 -1.04902079e-03 -1.32266234e-03 1.66115729e-04
      3.99503188e-04 1.25631609e-03 5.65939292e-04 1.48369360e-03
      -2.71081779e-04 1.80475845e-03 -2.41288566e-04 -9.53450159e-04
      -2.39979965e-03 -1.40740315e-03 1.49115559e-03 -1.24746386e-03
      -5.46687515e-05 -5.47606651e-05 5.99003863e-04 4.84985329e-04
      1.78137317e-03 4.16926434e-03 1.70466409e-03 1.43180043e-03
      4.96150751e-04 2.09367741e-03 -7.42198434e-04 -2.75983417e-04
      7.98331457e-04 -8.66659160e-04 -3.05422768e-03 -3.26416688e-03
      -2.17560562e-03 -1.38153788e-03 -5.35928470e-04 6.82063750e-04
      -2.73976475e-04 1.10315008e-03 7.26411992e-04 1.18250225e-03
      6.12026372e-04 2.83604045e-03 1.07556756e-03 5.36805252e-04
      8.72719975e-04 4.75912209e-04 1.90874259e-03 1.08086423e-03
      1.61289726e-03 -1.57756120e-04 1.08443398e-03 9.08729155e-04
      2.10213871e-03 2.95237545e-03 9.82599100e-04 1.79269724e-03
      -4.81074057e-05 2.78610591e-04 -1.97430188e-03 -2.56284862e-03
      -1.13898469e-03 -3.63391079e-03 -1.90323335e-03 -2.44390918e-03
      -1.04776904e-04 -1.86336169e-03 -2.42450903e-03 -5.73001860e-04
      -7.38726929e-04 8.99401784e-04 2.32831971e-03 1.74358150e-03
      2.99621141e-03 1.51349080e-03 4.72166197e-04 -8.61817505e-04
      -5.71440789e-04 -9.41973820e-04 8.71824450e-04 1.07542588e-03
      1.53110921e-03 4.78103204e-04 2.26671342e-03 1.63645227e-03
      4.63595265e-04 1.68436847e-03 5.58616302e-05 2.28886865e-03
      2.20187270e-04 3.22534470e-04 -1.67018070e-03 -3.02071194e-03
      4.08396649e-04 -2.25575222e-03 -1.22659083e-03 -1.89784425e-03
      1.80854753e-04 -1.53510727e-03 -2.05782871e-03 -2.80584907e-04
      1.44352275e-03 2.31426232e-03 2.60345102e-03 1.89361721e-03
      2.75909994e-03 1.76503242e-03 1.36564413e-05 -1.10353413e-03
      4.41426469e-04 -5.96947677e-04 1.18820660e-03 5.55197301e-04
      1.45484670e-03 -9.63773520e-04 -3.33450356e-04 -2.02296535e-03
      -5.98994084e-04 1.10274262e-03 7.62017007e-05 2.70328508e-03
      9.18253732e-04 1.32021308e-03 -6.98423712e-04 -1.90269446e-03
      3.04726454e-05 -2.32530432e-03 -1.02095923e-03 -2.47798394e-03
      -7.08091902e-05 -1.79507805e-03 -2.15378171e-03 3.86003703e-05
      2.50252197e-03 2.54739053e-03 1.86380546e-03 7.54220644e-04
      1.09277398e-03 6.29773131e-04 -1.78970382e-04 -1.74498360e-03
      -6.97828829e-04 -1.88657793e-03 3.94279079e-04 -8.85155168e-05
      8.82258872e-04 -1.04157499e-03 1.81887699e-05 -1.23326282e-03
      -1.60519453e-03 7.62289448e-04 -9.77192074e-04 6.44764397e-04
      -1.16559066e-04 1.40425877e-03 -2.46413401e-05 -1.11205748e-03
      7.84174044e-05 -2.66599143e-03 -7.75768131e-04 -2.28697597e-03
      4.04227787e-04 -1.30319817e-03 -1.66106096e-03 5.11726306e-04
      1.88733276e-03 2.52251327e-03 1.85808062e-03 7.09902262e-04
      4.82102274e-04 6.54217147e-04 -4.57266229e-04 -1.48974324e-03
      -5.28961420e-04 -1.82415405e-03 6.06002053e-04 9.53204926e-06
      8.36924533e-04 -1.08177040e-03 7.73160311e-04 -8.78608145e-04
      -1.25336484e-03 -1.15677110e-04 -2.00679386e-03 -1.98848755e-03
      -2.76018679e-03 -2.94900557e-04 -4.65586956e-04 -1.03198504e-03
      -8.56911705e-04 -2.83934153e-03 -4.87354526e-04 -9.22274892e-04
      3.21438885e-04 -1.44730613e-03 -6.59379759e-04 7.75991241e-04
      1.19830796e-03 2.23407731e-03 1.36851484e-03 6.78458309e-04
      9.53119714e-04 4.70917039e-05 -3.59525002e-05 -3.96604388e-04
      1.35433627e-03 3.38659418e-04 2.50577996e-03 6.90277899e-04
      7.28138548e-04 -1.14890537e-03 -6.67670247e-05 -1.05170300e-03
      3.00009648e-04 8.89331044e-04 -2.74712592e-03 -1.60947570e-03
      -3.54650174e-03 -1.33796292e-03 -8.97516438e-04 -4.68417820e-05
      -1.31535737e-04 -2.60121771e-03 -2.48361321e-04 -1.39598583e-03
      5.60127373e-04 -1.69663609e-03 -1.78166002e-03 7.65029617e-05
      1.32809777e-03 2.34863791e-03 2.23118230e-03 6.14575052e-04
      2.06867509e-04 -7.72530911e-05 -6.71015005e-04 -1.45416195e-03
      -8.28643853e-04 -1.69414282e-03 1.78229960e-03 6.30041643e-04
      1.08875195e-03 1.63291203e-04 1.67747366e-03 6.93133334e-04
      3.92565271e-04 5.54036407e-04 -2.11539539e-03 -1.09946611e-03
      -2.25863932e-03 -6.17669953e-04 -1.94739710e-04 9.39190970e-04
      -1.08848080e-05 -2.45000492e-03 -5.45393908e-04 -1.37028587e-03
      7.22675934e-04 -8.83930014e-04 -9.95117007e-04 9.23749525e-04
      1.13799376e-03 2.34769890e-03 8.42336391e-04 -8.55003527e-05
      8.53405625e-04 -5.28318669e-05 -1.87115639e-03 -3.32876039e-03
      -6.32623967e-04 -9.71260481e-04 1.72378332e-03 7.13156769e-04
      1.99404501e-04 -1.26941758e-03 2.96947837e-04 -1.14699616e-03
      -1.01166009e-03 -3.29596049e-04 -2.45597144e-03 -1.27154577e-03
      -2.38904497e-03 -7.60002411e-04 -1.02881901e-03 -6.19070488e-04
      2.64359172e-04 -2.25520297e-03 -1.17922225e-03 -2.11540330e-03
      3.54071264e-04 -1.01286382e-03 -6.80136873e-05 1.77992671e-03
      2.52408511e-03 3.11622443e-03 1.64930453e-03 8.66615388e-04
      1.57540536e-03 1.43483852e-03 -1.90713722e-03 -3.11903330e-03
      4.38205665e-03 -1.45849049e-06 1.37675414e-03 2.10431428e-03
      1.60800130e-03 -1.28258392e-03 -3.16005258e-04 1.79654686e-04
      -4.15198519e-05 2.63578189e-03 -2.80833570e-04 -2.53646541e-03
      -4.09431290e-03 -2.20948458e-03 -1.57719175e-03 -8.25586380e-04
      -1.15162856e-03 5.51827135e-04 -1.10715267e-03 -1.18088746e-03
      -6.15955578e-05 -2.62189860e-05 6.14872959e-04 2.07932037e-03
      1.83104991e-03 8.18378874e-04 9.22484673e-04 -7.05886050e-05
      -1.00838649e-03 1.56158616e-03 -6.06094371e-04 -5.49987133e-04
      3.75839812e-03 9.87402163e-04 1.32686249e-03 1.42458885e-03
      6.55749463e-04 -1.86990527e-03 -1.32379762e-03 2.61727895e-04
      -1.01092062e-03 1.67622615e-03 -1.05393329e-03 -1.34752307e-03
      -3.07006272e-03 -1.54592341e-03 -1.69857417e-03 -1.63600396e-03
      -1.59338315e-03 -2.04651686e-03 -1.04516407e-03 -1.58503267e-03
      -7.49504368e-04 -7.58681854e-04 -9.01366700e-04 -8.70839984e-04
      -7.89421785e-04 1.93845376e-03 7.29430816e-04 1.04092027e-03
      -1.87251178e-04 1.17263035e-03 -9.76163603e-04 -2.04203441e-03
      1.33651309e-03 6.68320747e-04 1.65562436e-03 1.69550336e-03
      1.63757824e-03 -2.64163042e-04 -7.30093278e-04 4.38640331e-04
      -6.92752539e-04 1.77135959e-03 3.24436842e-04 6.86024141e-04
      -1.18985563e-03 2.42059687e-04 -8.48856464e-04 -1.42785793e-04
      -2.89052352e-03 -2.02140029e-04 -1.44483789e-03 -1.04092127e-02
      6.52701943e-04 -6.54026691e-04 -4.61055490e-04 1.12469424e-04
      7.56890571e-04 3.32250376e-03 1.72518648e-03 3.23993177e-03
      1.37910771e-03 1.79098290e-03 -1.14481116e-03 -2.54384871e-03
      -5.72908939e-05 7.96234061e-04 1.20740943e-03 1.61842874e-03
      1.89534226e-03 8.99858074e-04 -1.75492343e-04 7.58296112e-04
      -2.77305313e-04 1.78396644e-03 1.32697009e-04 4.71288571e-04
      -1.47367665e-03 1.67198654e-04 -4.15861286e-04 -1.84708100e-04
      -2.83847959e-03 -4.40237229e-04 -6.75649091e-04 -3.91769543e-04
      1.89663479e-04 4.75703273e-05 -1.03617960e-03 -4.13725094e-04
      9.42216488e-04 -1.22585811e-03 2.96371436e-04 1.22361729e-04
      -7.59327260e-04 -6.22986990e-05 -2.44558672e-03 -3.63488775e-03
      -3.89934459e-04 1.10342039e-03 1.18623336e-03 1.28889189e-03
      1.70726678e-03 7.51256186e-04 -3.17142985e-04 5.78086037e-05
      3.93097376e-04 2.37769214e-03 -8.81852349e-04 3.94686795e-04
      -1.43391045e-03 -2.58183834e-04 -6.38634723e-04 -1.01497502e-03
      -2.28739530e-03 -3.33927484e-04 -4.68281709e-04 -1.69351420e-04
      8.95114790e-04 -1.26531534e-03 -1.55343732e-03 -5.44614391e-04
      -6.03768043e-04 1.11217995e-03 -1.03849440e-03 9.86291096e-04
      2.46941927e-04 3.36376310e-04 -2.45020702e-03 -1.67578016e-03
      3.14400058e-05 1.93539821e-03 2.27412791e-03 2.61353655e-03
      1.82864140e-03 9.51985712e-04 -3.72510985e-04 -2.23516428e-04
      1.07981719e-03 2.48321239e-03 -5.51908975e-04 1.69510153e-04
      -8.77549581e-04 6.68513589e-04 5.29857120e-04 4.41283017e-04
      -1.19641551e-03 7.22024357e-04 2.93565245e-04 4.03164420e-04
      -4.66352940e-04 -1.42638478e-03 -1.63053954e-03 4.07054788e-04
      6.51162583e-04 1.38481450e-03 2.86424125e-04 1.40824064e-03
      5.10525424e-04 2.80679466e-04 -1.74615870e-03 -1.07382890e-03
      1.00585457e-03 2.85641709e-03 3.51537811e-03 2.42761476e-03
      1.16333051e-03 1.06483966e-03 6.30284892e-04 2.22151339e-05
      1.09170924e-03 2.60541448e-03 -6.23795029e-04 -4.13290079e-04
      -2.89932621e-04 5.58435451e-04 1.60212920e-03 1.54820585e-03
      -1.97255891e-03 -5.13994833e-04 1.50314241e-04 1.07695360e-03
      8.94051802e-04 -1.41360168e-03 -2.24091578e-03 6.77936187e-04
      -1.03402976e-03 2.10594665e-03 -1.32392306e-04 9.12379357e-04
      -8.93352844e-04 -8.01079441e-04 -2.54862779e-03 -3.62408609e-05
      9.86353145e-04 2.98453798e-03 2.61694961e-03 3.26302485e-04
      6.21350657e-04 6.89750479e-04 6.00494037e-04 1.51607819e-04
      2.23901030e-03 2.28847843e-03 -1.31292036e-03 9.47312146e-05
      -1.85690844e-03 -1.41160868e-04 -6.09458482e-04 -7.09225540e-04
      -3.33010219e-03 -1.90623279e-03 -1.13571296e-03 3.11237382e-05
      -5.56206738e-04 -3.09279165e-03 -3.14268121e-03 -2.18248880e-03
      -4.42206115e-03 1.02022532e-04 -2.08262863e-04 -8.33243190e-04
      -8.90609168e-04 1.05799851e-03 3.74057423e-03 9.10106674e-03</_>
    <_>
      1.51396706e-03 -1.85435440e-03 -1.82822754e-03 -1.12940033e-03
      9.06909059e-04 9.46577929e-04 8.24764211e-05 9.09303373e-04
      8.79938074e-04 1.70460157e-03 8.87057744e-04 -1.11536729e-05
      1.21597077e-04 1.14161929e-03 1.81835121e-03 9.43983207e-04
      -7.43597804e-04 1.61190139e-04 1.61123156e-04 -7.03233934e-04
      -1.52752269e-03 -3.65820277e-04 -5.73479396e-04 -6.25135261e-04
      -6.60288206e-04 -5.67114854e-04 -1.37174444e-04 -1.87299811e-04
      -3.10195348e-04 -6.27542962e-04 2.02389609e-04 -7.67457968e-05
      6.72978640e-04 -1.02089695e-03 -9.63373284e-04 -2.87839939e-04
      -7.27760971e-06 7.19745658e-05 3.67460852e-05 1.71548792e-03
      5.70353259e-05 7.90998689e-04 9.05152119e-04 -8.39899585e-04
      -8.22327216e-04 2.87966774e-04 2.84690104e-05 -8.13110790e-04
      1.95237924e-04 1.03938452e-03 1.00368110e-03 -7.93462736e-04
      -1.61636143e-03 -5.98994491e-04 -1.43297948e-03 -2.21546972e-03
      -1.55597052e-03 -1.52489101e-03 -1.26104732e-03 -1.08364911e-03
      -1.96318535e-04 -1.21771358e-04 7.18847034e-04 -8.32070422e-04
      -4.96137909e-05 -8.82648048e-04 8.18305649e-04 7.14419642e-04
      -4.79744223e-04 -8.55623570e-04 -8.26167874e-04 1.67874957e-03
      8.75882863e-04 1.69271475e-03 8.71519966e-04 -8.74471327e-04
      -8.35870742e-04 7.83168653e-05 3.89429515e-05 -8.28418706e-04
      -8.74790072e-04 1.25141509e-04 -6.24582462e-04 -1.52744085e-03
      -1.46833935e-03 -6.75420626e-04 -6.50596514e-04 -1.51576067e-03
      6.76835334e-05 2.10697064e-04 4.45688172e-04 1.14378461e-03
      1.96490623e-03 1.97656034e-03 1.09515782e-03 -7.08577645e-05
      -1.27623416e-03 -2.08251551e-03 -9.36861979e-05 -3.56267992e-04
      -1.17011822e-03 8.53894671e-05 -7.98557070e-04 1.77502097e-03
      9.25057859e-04 1.71012233e-03 1.02933124e-03 -8.06948694e-04
      -6.45206193e-04 1.50613734e-04 1.22207755e-04 -7.08188745e-04
      -1.53855898e-03 -6.69746427e-04 -1.53657957e-03 -2.46792100e-03
      -1.60683854e-03 2.37943299e-04 3.49862676e-04 -4.50325606e-04
      -1.32648065e-03 -2.28174170e-03 -1.90399378e-03 -7.73347914e-04
      5.04210720e-06 -3.17940721e-05 -7.60553463e-04 -1.09401729e-03
      -9.54344345e-04 -2.79247155e-03 -1.08298403e-03 -2.09983042e-03
      -1.52608598e-04 1.70695002e-03 4.28371313e-05 1.73191307e-03
      -8.08565528e-04 1.16809279e-04 1.36922958e-04 -7.87246739e-04
      -7.61368661e-04 5.65293230e-05 6.30035211e-05 -7.34117639e-04
      -6.23919594e-04 2.03827280e-04 -6.80098950e-04 -2.37703533e-03
      -1.46708160e-03 -5.58186555e-04 -1.29126385e-03 -2.10107490e-03
      1.21525745e-03 5.62836067e-04 -7.12578418e-04 -1.26135233e-03
      -2.08600439e-04 7.61169300e-04 7.85154523e-04 1.01367407e-03
      -1.30706932e-04 -9.01411113e-04 -1.25431588e-05 -1.03420776e-03
      5.26752956e-05 1.69505167e-03 8.33135855e-04 8.67405382e-04
      -8.58148036e-04 3.80208985e-05 5.59862310e-05 -8.15367152e-04
      -8.48684169e-04 8.77251208e-04 9.03278997e-04 7.21977194e-05
      -7.53317319e-04 -7.13375863e-04 -7.34103494e-04 -1.54063129e-03
      -1.50540401e-03 -6.39198755e-04 -6.06019748e-04 -2.34206161e-03
      -6.89610548e-04 -6.32750103e-04 -4.26183920e-04 -1.21019641e-03
      -1.29183813e-03 -4.86036064e-04 -1.25873150e-04 -1.81401716e-04
      4.62227144e-05 -7.13653106e-04 1.28564905e-04 -8.07256962e-04
      2.97216407e-04 1.89201173e-03 9.84849059e-04 9.83469654e-04
      1.91739411e-04 3.91688700e-05 5.03075935e-05 -8.49369622e-04
      -2.46546260e-05 8.64592381e-04 2.52894006e-06 7.91761195e-05
      -1.61019003e-03 -8.04757408e-04 -8.96045880e-04 -1.77295518e-03
      -1.74393726e-03 -7.52303866e-04 3.24604800e-04 -4.22355981e-04
      2.78073392e-04 1.22455286e-03 1.32065243e-03 1.56149373e-03
      5.91730059e-04 1.11240341e-04 1.30719956e-04 1.08994474e-03
      5.63638532e-05 1.08771608e-04 9.97380121e-04 -8.71384924e-04
      2.05656426e-04 1.84033078e-03 9.04339016e-04 7.64545344e-04
      -9.56443604e-04 -1.42293531e-04 -1.03984225e-04 -1.86298415e-03
      -1.03456492e-03 -1.98103196e-04 -1.01205027e-04 -7.34615140e-04
      2.10987255e-05 9.42367886e-04 9.42264567e-04 -7.43116369e-04
      -1.66612188e-03 -1.51444331e-03 -1.39547186e-03 -1.27236708e-03
      -2.02112296e-03 -4.12191293e-04 5.61393041e-04 1.76045846e-03
      -1.34380723e-04 -1.38741569e-03 -1.36783975e-03 -5.19742316e-04
      8.30028381e-04 9.19269514e-04 2.63914990e-04 1.13495837e-04
      7.87019613e-04 9.02716711e-04 -2.95838126e-05 1.90575756e-05
      8.00081820e-04 8.98671511e-04 2.50304602e-05 -2.57095532e-03
      -2.70276760e-05 3.32968057e-06 7.44405028e-04 -1.66122592e-03
      1.17797084e-04 2.76188948e-03 1.97704835e-03 -5.39098284e-04
      -1.34629617e-03 -4.37381590e-04 -3.90757021e-04 4.80781717e-04
      -2.99746427e-03 5.17101551e-04 6.52319344e-04 -1.09033654e-05
      -4.18819036e-06 5.19164547e-04 6.10020943e-04 1.35678623e-03
      -1.70029025e-03 -1.74361013e-03 -5.89234172e-04 9.35075164e-04
      1.62223016e-03 1.76020956e-03 1.71978597e-03 7.35805486e-04
      2.51920708e-03 1.73389784e-03 1.77898968e-03 -7.51359097e-04
      9.77461692e-04 1.23790029e-04 8.77362399e-05 -1.45604752e-03
      3.45647277e-04 2.08272878e-03 1.22575508e-03 -1.36262167e-03
      -4.15196409e-04 5.24186587e-04 -2.81305634e-04 -3.19252315e-04
      4.74266417e-04 2.21689208e-03 1.51169102e-03 3.61501225e-05
      9.54926130e-04 1.41812221e-03 5.60069224e-04 5.90000767e-04
      -6.40129263e-04 -1.32748508e-03 -9.76239739e-04 -1.16173981e-03
      -4.11648158e-04 -3.51809373e-04 -2.80836975e-04 -5.25300100e-04
      2.24376190e-03 5.65416820e-04 6.23122323e-04 -1.00460788e-03
      6.27884408e-04 -1.92970585e-03 -1.99037837e-03 -2.60988530e-03
      -6.77992008e-04 9.78222670e-05 -1.70298736e-03 -3.42775602e-03
      -1.53897167e-03 -5.08938800e-04 -1.30088814e-03 -2.20853859e-03
      3.19146173e-04 1.96552457e-04 -1.27235497e-03 -1.56602636e-03
      1.87015357e-05 -2.98126484e-04 -1.31117098e-03 -1.25696242e-03
      8.47430609e-04 3.90208443e-04 -8.87118455e-04 -1.10683613e-03
      -1.14913471e-03 -1.14482350e-03 -5.26364602e-04 -6.35475561e-04
      1.47066766e-03 -2.54154234e-04 -1.19516754e-03 -1.99560518e-03
      -2.29883633e-04 -2.90056900e-03 -1.23961491e-03 -1.80963660e-03
      -7.66068755e-04 -7.72023865e-04 -2.58986442e-03 -3.46581312e-03
      -1.70556037e-03 -1.61156466e-03 -2.42646411e-03 -3.27215623e-03
      -6.84910454e-04 -8.57579347e-04 -2.43733730e-03 -1.76705583e-03
      -2.24644522e-04 -9.16384102e-04 -1.68747909e-03 -1.75215292e-03
      -9.46634624e-04 -1.30569492e-03 -1.71316299e-03 -1.09141192e-03
      -1.96276419e-03 -1.19396125e-03 2.69299751e-04 2.62720860e-04
      -2.06297103e-04 -1.99293927e-03 -1.14324572e-03 -2.82265316e-03
      -1.07535871e-03 -2.93128053e-03 -1.17669499e-03 -8.80786974e-04
      -1.35844923e-03 -7.66324229e-04 -2.57158978e-03 -3.41870403e-03
      -1.74444541e-03 -1.67118118e-03 -2.47278740e-03 -1.61783246e-03
      -1.63560349e-03 -9.84226819e-04 -8.39413726e-04 -1.11869813e-04
      5.84079768e-04 -1.65961639e-04 -9.38046840e-04 7.58383307e-04
      -3.59378569e-03 -2.13414780e-03 -1.72591233e-03 -3.36565368e-04
      -2.52584810e-04 -1.31153036e-03 -5.43300179e-04 -1.32563175e-03
      -2.28561359e-04 -1.07548072e-03 -2.94211262e-04 -3.53320409e-03
      -1.94294099e-03 -2.09155260e-03 -4.25859616e-04 -1.71223795e-03
      -2.19548540e-03 -8.56486906e-04 -1.73665921e-03 -1.74287113e-03
      -9.55293595e-04 -8.55017453e-04 -7.81339244e-04 9.22944746e-04
      -8.33364786e-04 -2.94757683e-05 -2.74460763e-04 7.23068602e-04
      1.45529548e-03 -6.14372693e-05 -9.12612246e-04 7.51024403e-04
      -2.74237851e-03 -1.07872090e-03 -6.73609669e-04 -1.84022749e-04
      -1.71934138e-04 -1.29106641e-03 -2.16572499e-03 -2.09833612e-03
      -2.15871399e-03 -3.37399164e-04 5.73781843e-04 -3.73081677e-03
      -2.14924035e-03 -1.35249645e-03 -5.76522434e-04 -2.61787116e-03
      -1.30355067e-03 -8.75749625e-04 -8.72297853e-04 -8.99150909e-04
      -6.88226355e-05 -9.71716690e-06 -7.80740927e-04 9.80712590e-04
      -8.54064885e-04 -1.10692694e-03 -1.39740901e-03 -2.59787310e-04
      5.88924915e-04 -9.46982007e-04 -9.32179217e-04 1.58281706e-03
      -2.02393858e-03 -1.23849406e-03 -8.30686244e-04 -9.60199046e-04
      -1.08637020e-03 -1.31782470e-03 -4.60049196e-04 5.06370969e-04
      -3.79844406e-03 -1.17654703e-03 5.32040838e-04 -3.82166961e-03
      -2.16609519e-03 -1.39774859e-03 -7.09422631e-04 -3.57929943e-03
      -1.24917470e-03 -2.78694297e-05 -8.73354205e-04 -8.94747092e-04
      -1.11260815e-05 -7.92869658e-04 -2.43059895e-03 -7.40648131e-04
      -8.64766247e-04 -1.19361351e-03 -3.19644203e-03 -1.10238814e-03
      -3.26297362e-04 -1.01106451e-03 -1.71501699e-04 1.46376318e-03
      5.01368078e-04 -2.02557375e-03 -1.51696370e-03 5.96891099e-04
      -2.66609801e-04 -2.97568389e-04 -4.86429315e-04 6.00654748e-04
      -1.86044694e-04 -1.64957266e-04 7.19694654e-04 -1.02456822e-03
      6.94335788e-04 -1.31100684e-03 1.83222844e-04 -1.96271203e-03
      -4.40118893e-04 8.10534169e-04 -1.71262235e-03 7.48438979e-05
      -9.44637111e-04 -1.70694385e-03 -8.78188352e-04 -1.70630403e-03
      -2.54868204e-03 -2.97625270e-03 -2.31487630e-03 5.92494500e-04
      4.83832875e-04 -1.47324463e-04 -1.56696409e-03 -1.94453704e-03
      -2.54643877e-04 -2.04259343e-03 -1.54328172e-03 -2.97622173e-04
      -3.02044122e-04 -4.40730480e-04 4.00089106e-04 -3.04594287e-04
      -2.01052957e-04 -2.29107638e-04 -2.72820529e-04 -1.88548490e-03
      -1.58173061e-04 -2.16048164e-03 -1.52709847e-03 -1.70027348e-03
      -1.34073384e-03 8.25637253e-04 -5.03929878e-05 8.55568796e-04
      -1.24253856e-04 -8.99370003e-04 7.31586420e-04 -9.97307870e-05
      -8.34104896e-04 -1.45900820e-03 3.12241347e-04 1.38490903e-03
      1.26418809e-03 7.10745051e-04 1.23191392e-04 -1.52353619e-04
      -1.91667321e-04 -1.22142839e-03 -6.27652043e-04 4.75992943e-04
      -3.25555942e-04 3.64347274e-04 3.83131643e-04 -3.14190314e-04
      6.62962557e-04 -2.56277330e-04 4.94529551e-04 -1.06225745e-03
      -1.02049415e-03 -2.29426497e-03 -1.44851452e-03 -6.06191112e-04
      -2.17518141e-03 8.37418949e-04 7.39816285e-04 1.56408560e-03
      -1.69979263e-04 -1.72082253e-03 8.23827693e-04 7.91676401e-04
      -8.88684706e-04 -1.54511374e-03 -5.80876833e-04 5.04795171e-04
      4.32819856e-04 -2.05197008e-04 -9.06673260e-04 -1.04359002e-03
      -1.99460730e-04 -3.85541585e-04 1.67556209e-04 4.46468155e-04
      5.36692503e-04 1.19683507e-03 1.34028657e-03 -2.59765686e-04
      6.20168226e-04 -2.94326368e-04 4.61938354e-04 -1.90248224e-03
      -1.09291635e-03 -2.40463042e-03 -5.08140074e-04 2.32106235e-04
      -1.34173513e-03 9.45326814e-04 7.70428684e-04 6.88748260e-04
      -1.04087242e-03 -1.76663848e-03 7.96025561e-04 8.66922492e-04
      -9.43400315e-04 -1.69041753e-03 -5.77970408e-04 5.66042145e-04
      4.17714968e-04 -1.35875554e-04 -8.02275434e-04 -1.01841532e-03
      -8.68631469e-06 -2.94785306e-04 2.47319986e-04 5.74173231e-04
      6.15012657e-04 1.29017187e-03 1.47580146e-03 -2.54750019e-04
      5.79414249e-04 -3.68370878e-04 5.17367851e-04 -1.89434679e-03
      -3.05548601e-04 -1.61439064e-03 -3.15560756e-04 3.95519135e-04
      9.24365653e-04 1.63293653e-03 -7.78264730e-05 7.27230858e-04
      -2.20786416e-04 -1.04429282e-03 7.79593829e-04 2.05762699e-05
      6.74517883e-04 -4.66455567e-05 1.20312301e-03 1.22840214e-03
      9.02359083e-04 1.56729284e-03 8.90106952e-04 6.74475974e-04
      8.15028907e-05 -1.12116570e-03 -4.47038823e-04 5.49169257e-04
      -2.99295236e-04 4.16455790e-04 1.43223279e-03 -3.31584393e-04
      1.37720676e-03 4.34125861e-04 1.33729039e-03 -1.05170789e-03
      -4.68723680e-04 -1.62672892e-03 -3.28410155e-04 3.87928594e-04
      1.53727992e-03 7.44362187e-04 -9.87188425e-04 -1.68035796e-04
      -1.77153299e-04 -8.54114478e-04 7.38666859e-04 -8.92939337e-04
      6.60116551e-04 -9.09748560e-05 1.12783955e-03 1.71523169e-03
      1.49598659e-03 1.45467964e-03 5.75640996e-04 5.01146540e-04
      1.48420033e-04 -1.96938450e-03 -1.30918203e-03 5.30905905e-04
      5.40051318e-04 3.89098452e-04 5.50559780e-04 5.11159771e-04
      1.41215487e-03 1.26712560e-03 2.22901371e-03 -2.05710618e-04
      2.61047244e-04 -7.17930554e-04 5.37029235e-04 3.73201619e-04
      -1.66519138e-04 7.72784580e-04 -9.92818736e-04 6.48082583e-04
      7.40855176e-04 5.70987722e-05 -1.15329378e-04 -1.78827159e-03
      -2.94150843e-04 -9.52578033e-04 3.78695695e-04 6.74650422e-04
      -3.26295354e-04 -1.97695859e-04 -3.44391097e-04 -3.89966648e-04
      1.92745321e-03 -1.20551919e-03 -1.38781953e-03 1.36506034e-03
      4.56399779e-04 4.03456652e-04 1.47370237e-03 1.77048985e-03
      9.09155293e-04 7.57520844e-04 1.82404008e-03 -7.22270343e-04
      5.54645492e-04 -1.12242310e-03 8.71500932e-04 6.90396701e-04
      -6.24992361e-04 1.03093917e-03 7.09803717e-04 1.53773930e-03
      1.62110757e-03 3.39659255e-06 7.62805401e-04 -1.00937684e-03
      -2.12026018e-04 -8.99335893e-04 6.43332431e-04 7.56862049e-04
      6.04940346e-04 -1.76774891e-04 -3.76149779e-04 -3.34047130e-04
      1.79352623e-03 -2.37200016e-04 -1.32090761e-03 -1.13538431e-03
      -5.39855217e-04 -5.80613618e-04 6.48940622e-04 8.47674673e-04
      7.46237929e-04 6.83517312e-04 -9.03476830e-05 -9.46724089e-04
      -5.94030484e-04 -4.28928732e-04 -1.04563416e-03 2.26973114e-03
